%YAML:1.0
---
opencv_ml_svm:
   format: 3
   svmType: C_SVC
   kernel:
      type: LINEAR
   C: 100.
   term_criteria: { epsilon:1.1920928955078125e-07, iterations:1000 }
   var_count: 64
   class_count: 10
   class_labels: !!opencv-matrix
      rows: 10
      cols: 1
      dt: i
      data: [ 0, 1, 2, 3, 4, 5, 6, 7, 8, 9 ]
   sv_total: 45
   support_vectors:
      - [ -8.59799402e-05, 5.90697564e-05, 4.70346095e-05,
          -1.22962219e-05, -1.27226653e-04, -1.75625973e-04,
          -2.57787964e-04, -1.70368658e-04, -1.34761285e-04,
          -1.01127043e-04, -1.54069508e-04, -1.97424233e-04,
          4.63404285e-05, -5.27178770e-07, -2.32570324e-04,
          -3.16204641e-05, 1.59637595e-04, -1.22793324e-04,
          -1.41652024e-04, 1.01953818e-04, -7.06049832e-05,
          -2.64788978e-04, -2.01125309e-04, -2.38729437e-04,
          -2.55791907e-04, 2.53051199e-04, -1.31192472e-04,
          1.74413784e-04, 2.03165109e-05, -2.15080028e-04,
          -6.95798735e-05, -1.14094539e-04, 1.97641129e-04,
          -1.78354356e-04, -1.19970231e-04, 1.79373437e-05,
          2.17938523e-05, 1.12925351e-04, 2.17634428e-04,
          -1.34206944e-04, -4.65049998e-05, 1.97006579e-04,
          2.13620209e-04, 1.52513050e-04, 3.32945019e-05,
          -2.03206655e-05, 9.04804547e-05, 1.88907492e-04,
          -7.07533254e-05, -4.51703381e-05, 2.49576296e-05,
          -5.26091299e-06, -2.00727027e-05, -7.80671398e-05,
          -5.54872713e-05, -4.31090812e-05, -1.16193907e-04,
          9.80096956e-05, 8.63008026e-05, 9.21339015e-05, 1.13357608e-04,
          7.04309132e-05, -1.64259127e-05, -1.85531448e-04 ]
      - [ -3.96955038e-05, -4.04551356e-05, -4.69694496e-05,
          2.86802733e-05, 2.98011473e-05, -2.60736888e-05,
          -5.06134020e-05, -3.07363080e-05, -1.10987792e-04,
          -6.30087743e-05, -1.35914370e-05, -1.80722400e-05,
          -1.55633694e-04, -1.22090467e-04, -4.94072374e-05,
          -5.67392453e-06, 8.73058743e-05, -7.90483900e-05,
          -2.30336038e-04, 4.98095869e-06, -1.52483393e-04,
          -7.56413720e-05, -1.50643988e-04, -7.54884604e-05,
          -8.78806750e-05, -3.50720693e-05, -6.58153440e-05,
          -6.66068590e-05, -1.54867681e-04, -9.93971335e-05,
          -1.51024578e-04, 3.80080965e-05, -1.32030313e-04,
          -1.04907696e-04, -6.85576815e-05, 1.26853032e-04,
          5.66318158e-05, -1.52648994e-04, -1.77809168e-04,
          -5.95711390e-05, -8.76859776e-05, -2.71432673e-05,
          -2.97355964e-05, 1.23254213e-04, 1.29662967e-05,
          -3.70055932e-05, -6.00131789e-05, -1.48301362e-04,
          -3.95835632e-05, -2.22987346e-05, -4.43356876e-05,
          2.17303659e-05, 1.06524363e-04, -4.40477106e-06,
          -3.83358201e-06, 5.98646402e-05, -7.90958002e-05,
          -2.06705881e-05, -2.47660341e-06, -3.69286681e-05,
          -2.45226911e-05, -4.99432281e-05, 4.07715743e-05,
          -4.22891317e-05 ]
      - [ 2.48281549e-06, 2.12275336e-06, 1.31085017e-06, 4.91883520e-06,
          3.27785938e-06, 1.30294029e-06, 8.35586036e-08, 1.49769157e-08,
          1.23572420e-06, 1.38547296e-06, 3.65962387e-06, 5.13366558e-06,
          5.48446724e-06, 1.21736946e-07, -1.22372095e-08,
          1.20541029e-06, -1.40512220e-05, -1.48571135e-05,
          -5.47609125e-06, -2.34373920e-06, 1.05752292e-06,
          -1.15206758e-05, -1.68910883e-05, -9.72838188e-06,
          -1.92473417e-05, -6.74279090e-06, 1.03900084e-06,
          7.80949176e-06, 7.54593998e-07, 1.64453070e-06,
          -5.17792478e-06, -7.68525570e-06, -4.27156834e-07,
          -6.95238259e-06, -8.14105351e-06, 2.72215016e-06,
          6.07040874e-06, 6.70196130e-08, -6.10799532e-07,
          -5.89564479e-06, -3.24564417e-06, -4.59415060e-06,
          3.40688416e-07, 1.08909417e-05, 1.30870094e-05,
          -1.40100667e-06, -9.61749365e-08, -4.83596386e-06,
          -5.63217109e-05, -3.74853917e-05, -1.20184213e-05,
          -1.42106182e-06, -4.31082881e-05, -5.39743160e-05,
          -3.55887132e-05, -4.67912796e-05, -4.15849499e-05,
          -4.55131385e-06, -6.07538777e-06, 1.83648226e-05,
          1.57258746e-05, 7.57835733e-06, -3.56367718e-06,
          -4.39502510e-05 ]
      - [ -2.58483633e-05, -4.71610729e-05, -2.98087452e-05,
          3.03396228e-04, 2.41065238e-04, -1.64696889e-04,
          -1.06239859e-04, -6.97920477e-05, -9.16060089e-05,
          -2.86614322e-05, 1.74326749e-04, 9.39577731e-05,
          2.58426007e-04, 5.20354988e-05, 3.30390139e-05,
          -6.19484854e-06, -1.94159889e-04, 1.02364997e-04,
          -7.29888270e-05, 1.49279847e-04, 4.66043821e-05,
          -8.00747439e-05, -1.21079822e-04, -1.86924066e-04,
          -5.82596404e-04, -1.04831073e-04, -2.88603827e-04,
          -1.91761545e-04, 1.16244068e-04, 1.83074459e-04,
          1.76210669e-05, 7.82735442e-05, 2.06620607e-05,
          -2.14560903e-04, -8.26470714e-05, 3.87261854e-04,
          -3.62184655e-05, 2.11562437e-04, 1.28170956e-04,
          1.11684334e-04, -8.40625507e-05, 1.21328187e-04,
          1.04338294e-04, 1.70547180e-04, 4.48630046e-04, 1.35405688e-04,
          4.10984612e-05, 1.47076484e-04, 8.12097278e-05,
          -8.49790740e-05, -6.62483071e-05, -1.10038891e-04,
          2.04300450e-05, 3.66527411e-06, -7.48846287e-05,
          -1.64072626e-04, -1.05160798e-04, 5.46158917e-05,
          -8.92786338e-05, 5.43609494e-05, -2.74059421e-05,
          -2.97722472e-05, 1.12540234e-04, -8.72150049e-05 ]
      - [ -6.94460323e-05, 1.71857073e-06, -1.16722804e-05,
          2.39784931e-04, 1.16649739e-04, -3.91212379e-05,
          -2.05153701e-04, -1.33904134e-04, -1.25735853e-04,
          -1.36141491e-04, -5.75588929e-05, 6.62158636e-05,
          -1.28246451e-04, -9.02849060e-05, -1.15083261e-04,
          -1.73923854e-05, -1.86335055e-05, -9.66616208e-05,
          -3.65522777e-04, -1.86685953e-04, 1.04056060e-04,
          1.54278550e-05, -1.25888808e-04, -3.99719429e-05,
          -2.94831189e-05, 1.73020671e-04, -3.16524587e-04,
          -2.62141257e-05, -2.27974990e-04, -9.23763437e-05,
          -1.20776298e-04, 1.64906698e-04, -1.33808717e-04,
          -1.21573990e-04, -3.23649845e-04, 1.23206191e-04,
          1.33167210e-04, -2.89108630e-05, -2.15342414e-04,
          -2.92161749e-05, -2.19997441e-04, -5.32577906e-05,
          -9.88493994e-05, 5.23100207e-05, 4.64739924e-06,
          -1.12963135e-05, -5.38887180e-05, -1.75763154e-04,
          9.60205289e-05, -4.91755563e-05, -1.72349974e-05,
          -2.72349297e-07, 2.05443321e-05, -9.52906994e-05,
          -1.26947649e-04, -1.92007064e-05, -6.15991958e-05,
          -9.51044349e-05, 8.72138407e-05, -1.83245011e-05,
          1.04581359e-05, 8.69569703e-06, 1.23683320e-04,
          -3.07841547e-05 ]
      - [ 7.45651448e-07, -2.59213323e-07, -1.10961423e-06,
          4.59666853e-06, 1.85742670e-06, -4.12404091e-07,
          -3.08538574e-06, -3.07543360e-07, -4.24812470e-07,
          -3.88359894e-07, 1.02995011e-06, 2.68324357e-06,
          6.94131404e-06, -9.98641312e-08, -1.97580994e-06,
          1.30461373e-07, -2.40429454e-05, -2.22051785e-05,
          -5.75034119e-06, 6.54702171e-06, 1.51547874e-05,
          -1.13796068e-05, -8.97053906e-06, -6.93397442e-06,
          -1.02689619e-05, -4.60081856e-06, -1.16298288e-05,
          4.35095217e-06, 2.20984680e-06, -9.15783585e-06,
          -2.08647034e-05, -2.35213101e-05, -9.52610662e-06,
          -1.05348745e-05, -6.41827000e-06, 5.22152277e-06,
          5.64669563e-06, -6.37239464e-06, -3.56461919e-06,
          -2.79053120e-06, -5.05334583e-06, -2.67137739e-06,
          -6.04070237e-07, 2.96122616e-05, 8.50641482e-06,
          4.06752270e-06, -7.19776381e-06, -5.10279051e-06,
          -6.91130335e-05, -3.84705490e-05, -3.09369739e-06,
          1.01243068e-05, -3.59482692e-05, -2.21704959e-05,
          -2.76730079e-05, -5.16184846e-05, -3.66665481e-05,
          -3.15792386e-05, -3.08660783e-05, 6.04604111e-06,
          -1.74010329e-05, -1.68908718e-05, -1.20954383e-05,
          -5.08184021e-05 ]
      - [ -2.29356694e-04, -3.05684021e-04, -3.05786933e-04,
          -2.08876700e-05, -5.25484211e-05, -1.21704623e-04,
          -1.25981751e-04, -2.14254484e-04, -3.30681301e-04,
          -1.81774216e-04, -2.22452451e-04, 1.24528713e-04,
          2.15327818e-04, 1.73264361e-05, -2.16068089e-04,
          -1.30966728e-04, -1.53647285e-04, 1.89960192e-04,
          -1.74493925e-05, 3.57655634e-04, 1.70886648e-04,
          -3.11099924e-04, -1.36209637e-04, -2.86661991e-04,
          -2.47436343e-04, -2.36563254e-04, -1.03663682e-04,
          4.86163277e-04, 2.40192967e-04, 3.80772923e-04,
          -1.12601600e-04, -5.46546253e-05, -2.31999045e-04,
          -1.58735900e-04, -1.88890481e-04, 2.39958186e-04,
          2.27558863e-04, -6.43005187e-05, 8.13351289e-05,
          4.11111614e-05, -1.53509289e-04, 2.39576781e-04,
          -5.33959465e-05, 3.41022678e-04, -1.11333648e-04,
          1.45550497e-04, -3.14725708e-04, 7.59172108e-05,
          -9.03841137e-05, -6.36916593e-05, -3.78401077e-04,
          -5.56069754e-05, 3.21868210e-05, 1.60040292e-06,
          -1.57981660e-04, -1.13599119e-04, -1.14866474e-04,
          1.74832661e-04, 3.46712550e-05, 9.30845636e-05, 4.34021131e-05,
          1.40330929e-04, 8.83953544e-05, -6.87142383e-05 ]
      - [ -1.23965234e-04, 4.63993383e-05, -3.22246400e-04,
          -9.95884911e-05, 2.02996380e-04, -6.78241413e-05,
          1.64217945e-05, -2.42673603e-04, -4.37792187e-04,
          -1.75499270e-04, -1.26254213e-06, -2.37577609e-04,
          6.69819274e-05, 9.96478921e-05, -1.20236051e-04,
          -6.95357594e-05, 9.40958198e-05, -1.51205444e-04,
          -1.18216936e-04, 2.11786792e-05, -1.70999749e-06,
          -9.52305272e-05, 2.22293074e-05, -9.76076917e-05,
          -7.85850279e-05, -8.42353111e-05, -4.14348251e-05,
          -1.02859567e-05, 6.55721960e-05, 1.18376884e-04,
          -1.28486327e-05, 8.12454600e-05, 4.73826658e-05,
          -7.84986769e-05, -3.26581940e-05, -2.05749325e-06,
          1.05375526e-04, 7.34250862e-05, 8.18007757e-05,
          -4.40805852e-05, -2.48117703e-05, 1.76231406e-05,
          -6.00619787e-05, 1.91835825e-05, 2.71984627e-05,
          -9.43034756e-05, -8.70309595e-05, -9.90634289e-05,
          -1.72601431e-05, -3.11598924e-05, 3.07123446e-05,
          6.67595086e-05, 2.69949705e-05, -1.43201196e-05,
          1.43099760e-05, 1.11356176e-05, -5.25430914e-05,
          6.50124493e-05, -7.42489055e-06, 1.81653559e-05,
          6.47257257e-05, 6.38857182e-06, 2.20769980e-05,
          -6.69808214e-05 ]
      - [ -3.00581614e-05, 6.59839425e-05, 5.11147700e-05,
          -8.89679359e-05, -2.09128193e-05, 2.94415440e-05,
          2.81711778e-04, -2.89354921e-05, 3.21923071e-05,
          -3.29600371e-05, -1.46784616e-04, 7.55625115e-06,
          1.89641178e-05, -7.17324801e-05, -7.91247730e-05,
          4.05572791e-05, 8.23977680e-05, -4.18694290e-05,
          -3.31646697e-05, 5.94472040e-05, 1.11249195e-04,
          2.52705686e-05, 1.20515419e-04, -1.71353604e-04,
          -8.69534290e-07, 1.45192507e-05, 4.45111837e-05,
          -3.72429240e-05, -3.57823483e-05, -1.32139787e-04,
          -1.11013767e-04, 3.38379941e-05, 8.32566948e-05,
          -2.49068107e-05, 3.61878228e-05, 1.02598087e-05,
          -2.66268785e-06, 5.89559277e-05, 1.16840762e-04,
          4.82256764e-05, 7.12707842e-05, 1.65871315e-04, 8.66088158e-05,
          2.76892079e-05, -3.38997706e-05, -7.08526422e-05,
          -5.53363061e-05, -4.71000603e-05, -5.89971241e-05,
          -2.02146311e-05, -2.53870639e-05, 1.84371911e-05,
          3.00978700e-05, 3.90908426e-05, 4.82468931e-05, 3.67084904e-05,
          5.13621635e-05, 4.47435777e-05, 4.24039217e-06, 5.65206801e-06,
          5.10241553e-05, -3.26594163e-05, -4.99368252e-05,
          -8.39418135e-05 ]
      - [ 5.01255636e-05, -2.79676624e-05, -4.92648087e-06,
          5.35212666e-06, -1.67711587e-05, -4.88112964e-05,
          1.01892183e-04, 2.43251475e-06, -7.50950130e-06,
          -1.64730664e-05, 2.10500402e-05, 1.06024709e-04,
          -3.69363333e-05, 3.64736661e-05, -2.67708092e-04,
          -2.37016666e-05, 1.15372954e-04, -2.72614961e-05,
          -6.18439080e-05, -9.95781738e-05, 9.56927397e-06,
          -6.23171436e-05, 1.27671039e-04, -7.29112362e-05,
          -8.30995559e-05, 3.62697028e-05, -3.85229978e-05,
          -5.61038323e-05, -9.91688285e-05, -2.29660850e-06,
          -1.28061598e-04, 5.88237526e-06, -1.03288025e-04,
          -1.07311163e-04, 3.47581226e-05, 4.32919551e-05,
          -8.81238793e-06, 3.34844481e-05, -8.13674069e-06,
          -1.76281083e-05, -2.16729895e-05, -2.98492250e-05,
          -6.16452598e-05, 2.83957306e-05, 3.05358117e-05,
          6.18456615e-05, -1.27718129e-04, -2.35747604e-04,
          2.35199550e-05, 5.28221062e-06, 1.10449118e-05,
          -7.85506018e-06, 8.09596895e-05, 6.17026817e-05,
          1.17595198e-04, -2.97803763e-05, -1.07743945e-04,
          6.55660988e-05, 3.16805599e-05, -3.08480012e-05,
          -1.13793776e-05, -3.19280152e-05, -6.98749791e-05,
          2.09585942e-05 ]
      - [ 3.58641191e-05, 1.36216850e-05, 3.05683943e-06, 4.41277189e-05,
          9.53650379e-05, 4.94162159e-05, 6.34562675e-05, 3.79184385e-05,
          6.16020843e-05, 2.68204567e-05, 2.21769988e-05, 6.93823167e-05,
          9.70210895e-05, 2.68546992e-05, 5.81726590e-06, 6.32429192e-06,
          -1.21952980e-04, -8.61552035e-05, -3.42567946e-05,
          5.48874232e-05, 4.92891195e-05, 5.30822108e-05, 1.34019880e-04,
          7.71288614e-05, -7.01218914e-06, -1.93844062e-05,
          -4.66150232e-05, -3.54534532e-05, 2.69427605e-04,
          1.28440355e-04, 8.33824015e-05, 4.83805634e-05, 1.49592915e-05,
          3.66143249e-05, 1.16386786e-04, 5.69400072e-05, 5.48237040e-05,
          9.69182875e-05, 8.53450329e-05, 3.23299282e-05, 2.37434415e-06,
          -5.11426915e-05, -6.09244271e-05, -6.53511015e-05,
          5.54441540e-05, 3.06660731e-05, -1.18841717e-05,
          4.83034382e-05, -1.71505584e-04, -5.44445502e-05,
          -8.10319179e-05, 5.06494107e-05, 2.07704106e-05,
          -1.23117308e-04, -2.66605275e-05, -1.37728668e-04,
          -1.55740170e-04, -2.38294542e-05, 1.14358889e-04,
          3.31717711e-05, 5.59024520e-05, -1.47834171e-05,
          1.20592609e-04, 6.65219413e-05 ]
      - [ -4.76596506e-05, -5.73442630e-05, -6.00455678e-05,
          2.68935764e-05, 2.22027942e-04, -6.86724088e-05,
          -6.42714440e-05, 1.06946500e-05, 8.25497336e-05,
          6.46756962e-05, 4.01047582e-05, 5.22951887e-05,
          -5.13722625e-05, 6.99883822e-05, -1.14623731e-06,
          -5.39118882e-05, 1.71361135e-05, 3.24888248e-07,
          -8.23183946e-05, -4.49113613e-05, -2.63500824e-05,
          -2.16889639e-05, 4.66109195e-05, -4.69234037e-05,
          -6.36169352e-05, -2.85446822e-05, -6.68724033e-06,
          -2.79832675e-05, 6.56708580e-05, 8.40054345e-05,
          3.06333895e-05, -9.32216699e-06, 1.40914462e-05,
          5.31228980e-05, 1.38842966e-04, 8.27427584e-07, 5.48286625e-05,
          1.39996147e-04, 1.83378997e-05, -7.75946100e-05,
          1.49292275e-04, 2.64797527e-05, -9.59243407e-05,
          -6.88561195e-05, 1.04420185e-04, 8.46285111e-05,
          -5.34136161e-05, -1.87732468e-04, -8.97963218e-06,
          7.77063615e-05, 2.25743315e-06, 2.06494133e-05, 3.38800273e-05,
          4.65401099e-05, 2.18655259e-05, -4.80853078e-06,
          8.34842376e-06, 1.46451621e-05, -1.75350306e-05,
          -2.00748545e-05, -5.01864633e-05, -2.45587344e-05,
          3.91780168e-06, 6.98190479e-06 ]
      - [ 4.16812109e-05, 2.40096178e-05, -1.94890708e-05,
          6.63921019e-05, 6.04037741e-05, 6.45788095e-05, 3.85380145e-06,
          -2.47994667e-05, -6.37286794e-05, -8.51273653e-05,
          -9.42744227e-05, -9.82432198e-07, 3.43242618e-06,
          5.45223957e-05, 5.52144738e-05, 1.47030687e-05, 6.29032093e-06,
          -1.24412196e-04, -8.30139106e-05, 9.49441437e-06,
          1.15988914e-05, 7.88813340e-05, 9.37302539e-05, 5.06789911e-05,
          9.96774033e-05, -1.49477310e-05, 1.20868453e-05,
          -1.02373175e-04, -6.06240465e-05, 6.90394199e-06,
          1.74642048e-06, -1.77708971e-05, -3.45329572e-05,
          -4.06240952e-06, 4.45193764e-05, 7.95347587e-05,
          5.13487539e-05, 9.09506853e-05, 4.44375510e-05,
          -5.10330210e-05, -1.57795730e-04, -1.14334842e-04,
          -3.89224224e-05, -1.89308485e-05, 6.02709988e-05,
          9.68427594e-06, 4.54015571e-05, -3.10135256e-05,
          -1.32157829e-05, -8.61197077e-06, 2.32779439e-05,
          -6.13901557e-06, 2.39153233e-05, 4.48728933e-05,
          6.25469966e-06, 2.20764177e-05, 8.34808634e-06, 9.04511689e-05,
          2.00375030e-06, -3.39495200e-05, -2.13973963e-05,
          -6.01820611e-05, -3.23696004e-05, 3.46911361e-06 ]
      - [ -1.20344790e-04, -1.29242280e-05, -3.24359316e-05,
          1.38404139e-04, 4.02214464e-05, -3.76272801e-05,
          -1.20153512e-04, 2.53102535e-05, 8.93553874e-07,
          7.85551947e-06, 2.99437597e-05, 9.97882962e-05, 4.11794936e-05,
          1.40656033e-04, -3.03987617e-05, -1.11229048e-04,
          -1.94304026e-04, -7.70011247e-05, -1.89936880e-04,
          1.14026116e-04, 4.04536195e-06, 9.97786265e-05, 3.34101060e-04,
          -1.35521434e-04, 2.55042192e-04, -1.47746847e-04,
          -1.41042503e-04, -9.56884032e-05, 1.64711542e-04,
          1.66980972e-04, -1.62332086e-04, -7.91280836e-05,
          -4.39975884e-05, -7.41816693e-05, 3.08398812e-05,
          6.75335832e-05, 1.00536454e-04, 9.63629209e-05,
          -8.55140970e-05, -2.33063329e-04, -7.66163721e-05,
          -2.05642846e-05, 5.33739403e-05, 1.54282840e-04,
          1.95367757e-04, 2.39300294e-04, 3.99119890e-05,
          -1.75492678e-04, -2.97970430e-04, 6.10868592e-05,
          -5.26509648e-05, 1.69802952e-05, 4.55811169e-05,
          6.13855736e-05, 1.12993048e-05, -1.28261032e-04,
          -4.73101791e-05, 1.90577644e-04, 1.05706778e-04,
          5.89455449e-05, -1.48338935e-04, -1.32761110e-04,
          -8.23699811e-05, 1.35251712e-05 ]
      - [ -2.18419382e-06, -6.94772170e-05, -3.54773474e-05,
          2.17826291e-05, 5.75488320e-06, 5.19693749e-05, 2.52583523e-05,
          -5.28172814e-06, -2.05156157e-05, 2.70892997e-05,
          -2.01739931e-05, 8.56851257e-05, 1.79347087e-04,
          6.94073460e-05, 3.72853378e-06, -8.73223689e-05,
          -2.26877219e-05, 4.09587192e-05, -2.67904452e-05,
          2.27726359e-05, -4.94692222e-06, 5.21665106e-06,
          5.59700966e-05, -1.52867160e-05, -5.09494021e-05,
          -4.94141068e-06, -1.29335922e-05, 5.18423331e-05,
          1.61090193e-05, 9.19241756e-06, 5.76514904e-05,
          -1.25687611e-05, 3.12487209e-05, -5.29659119e-05,
          9.80367477e-05, 3.02624885e-05, -6.11550513e-06,
          -1.48809768e-05, -5.48139797e-05, -6.70432710e-05,
          -7.18095453e-06, -2.09959271e-05, -3.94610252e-05,
          -2.52948885e-05, -7.20370372e-06, 2.14103147e-06,
          5.97461622e-05, -4.57984970e-06, -1.57169995e-06,
          1.39145968e-05, -2.75387029e-05, -3.47534005e-05,
          -1.60804830e-05, -6.79873710e-06, 7.82990901e-06,
          -5.04062336e-05, -6.67872664e-05, 9.55682935e-07,
          -4.45311599e-07, 4.94228198e-06, -2.80684139e-06,
          1.22773099e-05, 1.17031959e-05, 1.34809516e-05 ]
      - [ 7.84283566e-06, -1.88636732e-05, -2.18519126e-05,
          -6.33502277e-05, 7.51326006e-05, 5.37430788e-05,
          1.11406640e-04, -4.21048244e-05, -1.16470492e-05,
          1.91701129e-05, -6.83702965e-05, -5.68259020e-05,
          6.19208804e-05, 3.71384631e-05, 6.29305650e-05,
          -2.87168277e-05, 3.19468600e-05, 3.30418607e-06,
          -7.40489195e-05, -6.90373345e-05, -2.02218926e-05,
          -2.66606421e-05, 6.04271409e-05, 4.51214100e-06,
          -5.92983924e-05, 2.69929114e-05, 7.73525335e-06,
          -6.92859976e-05, 1.30180424e-05, -2.75260172e-05,
          4.12741610e-06, 4.22369812e-05, 1.94510176e-05,
          -3.38352402e-05, 5.09982165e-05, 1.88584454e-05,
          2.78822790e-05, 4.19871394e-05, -2.49573145e-06,
          -9.28876761e-05, 7.99711415e-06, -4.01129691e-05,
          -5.48371827e-05, -4.03919403e-05, -8.78924038e-06,
          8.26010364e-06, -7.54861467e-05, -1.45148661e-04,
          -2.39754809e-05, -2.41486650e-05, 2.28999852e-06,
          1.97829431e-05, 1.03058719e-05, 3.99734854e-05, 4.43152567e-05,
          3.52033021e-05, 1.21787125e-05, 2.42399551e-06,
          -1.20663515e-06, -1.34068669e-05, -3.80619022e-05,
          -2.81465673e-05, 2.44742682e-06, 2.09230311e-05 ]
      - [ 5.93975565e-05, -5.63719550e-05, -3.53523028e-05,
          1.69145220e-04, -1.36084864e-05, 1.84490200e-05,
          -2.35828020e-06, 6.03580047e-05, -8.62397883e-06,
          2.78315074e-05, -6.24173917e-05, 2.82429883e-05,
          -9.95609153e-05, 4.05683750e-05, -4.25857215e-05,
          6.01448482e-05, -2.30719343e-05, 1.25595034e-04,
          -1.14194663e-05, -6.03691260e-05, -3.70045236e-05,
          4.34000958e-06, 1.61768781e-04, -2.27300443e-05,
          1.79269045e-04, -9.23396219e-05, 2.65685794e-05,
          -7.59222530e-05, -4.61342606e-05, -4.87040161e-05,
          3.07749724e-05, 1.76550398e-04, -1.18148077e-04,
          1.44806050e-04, 3.76436365e-05, 3.94139943e-06, 1.19829065e-05,
          4.91684077e-05, 1.83280514e-04, 1.60501557e-04, 1.15655945e-04,
          1.98771406e-04, 1.32500872e-05, -5.53530408e-05,
          -7.62462196e-06, -2.41313992e-05, 4.09562745e-05,
          -6.07219190e-05, 7.30536558e-05, 1.43964362e-05,
          1.86878660e-05, -5.58662032e-05, -2.69804514e-05,
          -2.46847685e-05, -1.16643714e-05, 3.56199621e-07,
          6.71976813e-05, -7.88636244e-05, -4.29938009e-05,
          -7.65639925e-05, -8.21024878e-05, -1.05477709e-04,
          -1.78819137e-05, 1.34558759e-05 ]
      - [ 9.40225891e-06, 5.97297912e-06, 2.14027637e-06, 6.65250536e-06,
          3.64552170e-06, 1.32433788e-05, 5.93877849e-06, 1.05788595e-05,
          1.31291827e-05, 1.26099042e-06, 1.32980758e-05, 2.62288377e-05,
          1.59745887e-05, 1.17422678e-05, 1.65342917e-05, 6.89408671e-06,
          1.20449868e-05, 8.13868337e-06, 2.41417474e-05, 2.57433094e-05,
          -9.49833066e-06, 1.76888207e-05, 1.64755529e-05,
          8.30251611e-06, 4.27818850e-05, 1.50490278e-05, 4.28782514e-05,
          3.69816808e-05, 4.87963189e-05, 7.24734928e-05, 5.83437031e-05,
          -3.16452633e-06, 2.54824590e-06, 3.72018912e-05,
          4.39739097e-06, -8.22960101e-06, -2.15334239e-06,
          4.96434097e-07, 2.08316069e-05, 3.15170041e-06, 3.51035378e-05,
          4.71701242e-05, 5.02301737e-05, 5.23622693e-05, 2.85982842e-05,
          1.11432364e-05, 3.50264527e-05, 3.25884248e-05,
          -7.30470201e-05, -6.80388912e-05, -4.40278927e-05,
          -2.21650680e-06, -3.63869985e-05, -1.03368853e-04,
          -5.49472934e-05, -1.09684033e-05, -7.81124327e-05,
          2.63368406e-06, 2.78774241e-05, 8.92501484e-05, 5.69214935e-05,
          5.10535028e-05, 6.57855853e-05, -2.90601092e-05 ]
      - [ 3.48200979e-06, 3.50018854e-05, -8.12724393e-05,
          -7.84338190e-05, 3.21730404e-05, -1.47503393e-04,
          1.09875349e-04, 1.04275961e-04, 1.42737714e-04, 2.26942197e-04,
          -1.58821949e-05, 1.52629054e-05, 1.05719882e-04,
          -1.39505264e-05, 4.44882899e-05, -5.41712143e-05,
          -1.28481543e-05, 2.10212129e-05, 1.04828607e-04,
          2.97289516e-05, 1.44376791e-05, 7.73699794e-05, 1.25357168e-04,
          1.14086552e-05, 3.12105221e-05, -7.56151640e-05,
          -5.77903047e-05, -5.96942436e-06, 8.89585426e-05,
          1.58577284e-04, 7.52068445e-05, 2.62273261e-05, 1.57730552e-04,
          3.63545987e-05, 1.82366093e-05, 2.69499396e-05,
          -2.04014374e-04, 2.97933002e-04, 8.32764854e-05,
          1.32516157e-04, 1.36732720e-04, 1.04829676e-04,
          -1.37615949e-04, -5.36159387e-05, 3.42045561e-04,
          6.79465011e-05, 2.34422070e-04, 4.59824469e-06,
          -4.45123260e-05, -1.37278012e-05, -2.24778814e-05,
          2.55715458e-05, -4.31721746e-05, -4.06725594e-05,
          -2.53293074e-05, 4.24212230e-05, 2.82946148e-05,
          -1.07985958e-04, -5.42904490e-05, -9.06378864e-06,
          7.03393061e-06, 4.98586360e-06, 4.41305674e-05,
          -3.99555574e-05 ]
      - [ 1.41386787e-04, 3.77815595e-05, 9.56232543e-05, 1.49344214e-06,
          4.81101779e-05, -2.34871350e-05, -2.13951462e-05,
          2.49746190e-05, -2.22461540e-06, -3.07840892e-05,
          -1.82882013e-05, 3.49003167e-05, -5.24836869e-05,
          3.87574873e-05, -5.67263669e-06, 1.61601110e-05,
          -3.21132211e-05, 3.26536319e-05, 4.03055128e-05,
          2.22633207e-05, 7.71317718e-05, 5.82093708e-05, 5.64544425e-05,
          1.81723426e-05, -1.33103458e-05, 1.85229565e-05,
          -5.96243772e-05, -5.86746828e-05, -9.22285981e-05,
          -3.96862852e-05, 1.18347807e-05, -1.88583708e-05,
          1.07069145e-05, 2.45081701e-05, 2.68674239e-06, 1.06110338e-05,
          -1.85773024e-05, 1.62548331e-05, -1.52619232e-05,
          -6.48156356e-06, -4.88800470e-05, 3.22890310e-06,
          -1.94078330e-05, 4.98772488e-06, 2.30803034e-05,
          2.10346002e-06, 4.63654142e-05, 5.94970916e-05, 1.99927599e-05,
          -2.38960674e-05, -5.04539867e-06, -3.70368398e-05,
          -7.15601254e-06, 3.08706658e-05, 4.52887843e-06,
          2.50818048e-05, -1.39812164e-05, 3.63954969e-05,
          9.15085730e-06, 1.14061695e-05, -3.13317196e-06,
          4.22461335e-06, 5.04818047e-07, -2.93739085e-05 ]
      - [ -1.25454362e-05, -9.68726818e-05, 8.32148144e-05,
          4.50199841e-05, -1.01358683e-05, -3.20719082e-05,
          -7.04072809e-05, 5.10755272e-05, -2.09878635e-05,
          -2.45582978e-05, 4.88326486e-06, 4.63336364e-05,
          1.93161322e-04, 2.08592937e-05, 3.31399133e-05,
          -1.42776878e-06, -1.23819016e-04, 3.60069207e-05,
          5.20426220e-05, 1.08735170e-04, -7.02745383e-05,
          -1.27644293e-04, 1.00178768e-04, 2.25187850e-05,
          3.02895442e-05, 2.56431667e-04, -1.94249569e-05,
          -7.16725990e-05, -1.71787280e-04, -1.64995417e-05,
          -1.45266995e-06, -2.52639118e-04, -2.94751721e-04,
          1.01220874e-04, -3.53943688e-05, -8.79448853e-05,
          -1.70691288e-04, 4.40017175e-06, -7.34370624e-05,
          1.63095290e-04, 9.39804522e-06, 1.04645034e-04, 9.00515588e-05,
          1.37223222e-04, 1.84849996e-04, 1.32517744e-04,
          -7.83016658e-05, -1.25099497e-04, -2.05030490e-04,
          4.61771451e-05, 6.29991337e-05, -5.46798992e-06,
          -2.04148208e-04, -8.61055014e-05, -1.14425638e-04,
          3.49626935e-05, -1.24467435e-04, -9.98231990e-05,
          3.52697825e-05, 1.61798351e-04, -9.95908485e-05,
          -5.48043936e-05, 5.60544031e-05, -8.22667789e-05 ]
      - [ -2.09897742e-04, -3.02689063e-04, 2.58843556e-05,
          -6.05793102e-05, 1.38181509e-04, 3.82726139e-05,
          2.20206857e-04, 7.87944809e-05, 8.97186765e-05, 1.75313453e-05,
          -7.30319953e-05, 4.36773000e-04, 2.49746954e-04,
          6.38337224e-05, -1.36882634e-04, -8.35152459e-05,
          3.35653240e-05, -1.19298957e-05, 2.41727193e-05,
          3.58563848e-05, -9.31189504e-07, 5.21494585e-05,
          -7.44865465e-05, -1.98306152e-05, 6.76972704e-05,
          2.99647108e-05, 5.42308990e-05, 4.86942445e-05, 9.89481778e-05,
          1.13513008e-04, 1.02126935e-04, -1.75796769e-04,
          -1.13383147e-04, -2.12026309e-04, -2.54315564e-05,
          -2.59835797e-05, -3.01223517e-05, 1.88412032e-05,
          -1.07450724e-05, 1.50988926e-04, 6.91533351e-05,
          1.48549603e-04, 9.29322341e-05, -2.89784221e-05,
          7.08454027e-05, -6.78212091e-05, 1.98536698e-04,
          1.22322279e-04, 1.97656773e-05, -1.19889519e-04,
          -1.06726155e-04, -6.98475123e-05, -5.87427894e-05,
          1.72065611e-05, -8.14401355e-05, -1.70502481e-05,
          4.22975354e-05, 9.60878242e-06, 7.55143337e-05, 4.81589304e-05,
          8.14931918e-05, 1.24113678e-04, 2.33871760e-05, 5.05400385e-06 ]
      - [ 1.59143910e-05, 3.93416922e-05, 6.38868951e-05,
          -2.34231484e-05, -3.88457047e-05, -2.01448183e-05,
          2.25997901e-05, -3.25827859e-05, 4.16599050e-06,
          -5.65676692e-06, -4.08053129e-05, 7.67627171e-06,
          6.74826078e-05, 5.30753277e-05, 2.46782638e-05,
          -6.55938129e-05, -2.38251159e-05, 2.12307023e-05,
          -1.62087617e-05, -9.84943108e-06, 2.69959742e-06,
          4.05568207e-05, 7.41783333e-06, -4.00373538e-05,
          2.76426981e-05, 1.31008637e-05, -1.73029675e-05,
          -2.33819992e-05, 1.12158714e-05, -1.55308862e-05,
          8.40552457e-06, -5.15142783e-05, 2.71909284e-05,
          -4.50347616e-05, 1.09754965e-05, 1.73715252e-05,
          1.50779624e-05, -6.73015984e-06, 1.11650688e-05,
          1.55355356e-05, 4.42161909e-05, 4.41345219e-06, 1.62963952e-05,
          -7.31491218e-06, 1.57932172e-05, -5.36044536e-05,
          -5.46773372e-05, 3.91088615e-05, 3.21084735e-06,
          2.09129194e-05, 1.34708789e-05, 2.29555026e-05,
          -2.90540811e-05, 1.14075064e-07, 4.13861344e-05,
          3.94502831e-06, 8.34622188e-06, 1.68545466e-06, 1.63602490e-05,
          1.83541379e-05, -6.30943714e-06, -8.63832702e-06,
          4.17437150e-05, 1.48887448e-05 ]
      - [ 1.76226677e-05, 1.14451450e-05, 5.89461433e-06,
          -1.31263341e-05, -2.44262319e-05, 1.61357384e-05,
          8.37256721e-06, 2.02555511e-05, 4.44399702e-05, 4.04923812e-05,
          5.27179964e-06, 4.61071863e-07, 8.98167345e-05, 1.99670849e-05,
          -1.42603267e-06, 5.49738206e-06, 5.55229271e-05,
          9.36601573e-05, 1.08203298e-04, 3.86039137e-05, 2.74191225e-05,
          2.22444378e-05, 6.70927548e-05, 8.24115341e-05, 7.14609341e-05,
          6.58882200e-05, 6.29770802e-05, -1.91451327e-05,
          1.06425170e-04, 3.42218154e-05, 5.60543413e-05, 7.14947164e-05,
          1.27163163e-04, 9.61628248e-05, 8.17520922e-05,
          -5.48091994e-05, -6.34901880e-05, 1.39165917e-04,
          9.48238157e-05, 7.26563740e-05, 9.90284752e-05, 1.13284870e-04,
          4.04158745e-05, -6.50098664e-05, -9.63608618e-05,
          2.26167413e-05, 5.06349897e-05, 9.38223384e-05, 6.65369516e-05,
          7.49261162e-05, 3.15739235e-05, 2.25634412e-05,
          -2.55068462e-05, -1.06305447e-06, -4.05217397e-05,
          -4.20324477e-06, 3.41243540e-05, 5.37485575e-05,
          -1.25213146e-05, -3.83186343e-05, -5.68405485e-05,
          3.10765870e-07, 2.14473471e-06, -3.88940771e-06 ]
      - [ -1.79117469e-05, -3.56360688e-05, 1.40636860e-06,
          -2.91580527e-05, -6.79150107e-05, -6.27090485e-05,
          -3.14859935e-05, -1.66896971e-05, -2.01945186e-05,
          2.37434256e-06, -4.65876496e-07, -3.78839868e-05,
          -4.43654244e-05, 1.01580954e-05, 6.64240542e-06,
          -7.46952765e-06, 1.63936187e-04, -2.85160277e-05,
          -1.38442934e-04, -5.53054051e-05, 5.33255807e-05,
          1.51477898e-05, 7.49367246e-05, -6.95811032e-05,
          -6.06327412e-05, -1.39876676e-04, -1.49988235e-04,
          -6.37336270e-05, -2.17863242e-04, -1.15791518e-04,
          -1.99913018e-04, 4.94456981e-05, -4.94500546e-06,
          -2.43160503e-06, -1.93160176e-05, 2.52322916e-05,
          1.36730625e-04, 8.58704807e-05, -1.16190267e-05,
          -3.20243853e-05, 2.03253458e-05, -5.34803876e-05,
          -4.07825837e-06, 1.08097855e-04, 1.61586213e-04,
          5.11734288e-05, 5.53828322e-05, 5.08664561e-06, 1.68174083e-04,
          -1.66961945e-05, 3.93215196e-05, -2.20087441e-05,
          2.37347194e-05, 2.33254192e-04, 1.40114193e-04, 1.17243566e-04,
          1.76737434e-04, 4.23238816e-05, -5.65732371e-05,
          -1.08541790e-04, -1.12263115e-04, -8.53081510e-05,
          -2.13704134e-05, -1.42721638e-05 ]
      - [ 3.85285130e-05, 1.93607902e-05, 6.22100515e-06,
          -2.17617276e-06, -2.30822079e-05, -1.86887009e-05,
          -7.12685187e-06, 9.77253421e-06, 1.73503140e-05,
          1.30328044e-05, -1.46748425e-05, -1.38421919e-05,
          -6.79040932e-06, -3.62345031e-06, -1.71485942e-06,
          1.17819336e-05, -8.45290706e-05, -3.44411295e-04,
          -8.19319393e-05, -7.85871962e-05, 3.25986775e-06,
          5.80635169e-05, 2.75951379e-07, 1.31148990e-05, 1.11830581e-04,
          1.31044828e-04, -7.10819659e-05, -1.73371329e-04,
          -1.49602638e-04, -1.19631004e-04, 9.94183574e-06,
          -7.14752387e-05, -6.52309827e-05, -1.76420926e-05,
          1.40462807e-05, -6.85726854e-06, 3.43589709e-05,
          -6.52793824e-05, 2.67435007e-05, -2.61489595e-06,
          2.21789887e-05, -7.19908639e-05, 4.45389414e-05,
          5.03092160e-05, 1.27621432e-04, -9.06854621e-05,
          9.40742120e-06, -1.32137748e-05, 3.56029850e-05,
          1.05897023e-04, 9.03280088e-05, -3.90070127e-05,
          6.53441602e-05, 2.32175240e-04, 1.06434054e-04, 1.25449311e-04,
          1.53322035e-04, -3.82397448e-05, -4.70469276e-05,
          4.88511032e-05, -1.32020505e-04, -1.28219821e-04,
          -1.61415766e-04, -6.61237136e-05 ]
      - [ -8.12106227e-05, 1.82527019e-05, -6.67709319e-05,
          3.33317512e-05, -1.62761644e-04, 5.56269470e-06,
          -9.53785420e-05, 4.78719983e-07, 4.54544970e-05,
          2.17019315e-05, 7.86075325e-05, 8.59217107e-06,
          -1.68051920e-05, -1.34939282e-05, -1.98356247e-05,
          -5.64079455e-05, -1.36097578e-05, -3.16963524e-05,
          -2.57896208e-05, -1.63645507e-06, -1.55150519e-05,
          -1.97299742e-05, 4.57533279e-05, 3.75108757e-05,
          1.90891442e-05, -9.00584928e-06, -8.79260369e-06,
          -1.85233148e-05, 1.21996827e-05, -2.41505895e-05,
          -5.68380128e-05, -1.06957441e-05, -5.12852457e-05,
          -4.90453640e-05, -3.46562342e-06, 4.82537253e-05,
          2.59944954e-05, -3.12094526e-05, 5.43696979e-06,
          -4.08129090e-05, 1.44125283e-04, 8.12271828e-05,
          5.45339426e-05, 8.06183671e-05, 1.49957741e-05, 5.52921665e-05,
          -1.02740363e-04, -7.06128776e-05, -2.70664950e-05,
          -5.19756782e-07, 1.92279458e-05, 2.72576490e-05,
          1.17146801e-05, 4.22617668e-05, 4.16069597e-05, 2.07218181e-05,
          2.84670023e-06, -7.54493522e-06, -6.12753183e-07,
          -3.02470562e-06, -3.92951551e-06, 2.78529951e-05,
          6.49580943e-06, 8.96003894e-06 ]
      - [ -1.24882848e-04, -1.01300648e-04, -1.25229126e-04,
          -6.19689235e-05, -3.17736885e-05, 5.03232259e-05,
          -1.13586444e-04, -4.42050114e-05, -2.97788967e-04,
          -1.57778166e-04, -1.56858863e-04, 1.15128612e-04,
          1.57633520e-04, 1.88622784e-04, -3.04858622e-05,
          -1.52704364e-04, 7.99078189e-05, 5.26827898e-05,
          2.05798249e-04, 5.15769825e-05, 3.06372676e-05, 4.05093742e-05,
          -3.60513404e-05, 7.08255902e-05, -3.74248316e-06,
          -1.03141494e-04, -2.61731093e-05, -8.59559223e-05,
          -7.74654254e-05, -1.52536915e-04, -1.30839166e-04,
          2.38076027e-05, 4.71517415e-05, 1.28785658e-04, 1.57591294e-05,
          1.91760755e-05, -1.79683921e-05, -8.10323909e-05,
          -2.45218835e-05, 2.88809974e-06, -1.78909759e-05,
          -5.67639909e-05, -3.93849550e-05, 1.76757225e-04,
          -6.57811106e-05, -1.51194574e-04, -6.30570794e-05,
          -6.31672083e-05, 2.36598462e-05, 4.68277212e-05,
          -2.69589582e-05, -3.11734802e-05, -1.92967873e-05,
          4.65852390e-05, -3.33215612e-05, 2.56331023e-05,
          4.72956381e-05, -3.56386372e-05, -2.22234485e-05,
          -3.76328062e-05, -3.69883564e-05, 2.68944623e-05,
          -1.30830051e-06, -7.69420149e-06 ]
      - [ -5.15920874e-06, 2.50841254e-06, -8.19137949e-06,
          -1.52055745e-05, -2.95318341e-06, -7.50924983e-06,
          -3.26196869e-06, 2.06934214e-06, -4.35609581e-06,
          -2.93390008e-06, 2.56112912e-06, -1.29264763e-05,
          -5.62399509e-06, -3.70857015e-06, -5.97305871e-06,
          -7.41659278e-07, -4.06647899e-07, 4.35330003e-06,
          -9.32997409e-06, -1.93486921e-05, 1.12318503e-05,
          -2.68397471e-05, -2.87730700e-06, -2.61425544e-06,
          -3.98046222e-06, -8.45095292e-06, -2.75780967e-05,
          -2.39466426e-05, -5.04750678e-05, -4.80401904e-05,
          -1.62944616e-05, -3.50734153e-05, -3.05875983e-05,
          -2.43553222e-05, -1.47974597e-05, -1.60852469e-05,
          3.28507267e-05, -5.54311464e-06, -1.41293333e-06,
          -1.40515695e-05, -2.79875621e-05, -3.85012645e-05,
          -2.77268628e-05, -3.11761069e-05, -4.94874912e-05,
          -2.01783205e-05, -2.54408933e-05, -1.70035491e-05,
          6.47548804e-05, 5.72678364e-05, -8.65919264e-06,
          5.35951003e-05, 1.06494299e-04, 8.03989460e-05, 6.44673273e-05,
          4.13225825e-05, 4.96096218e-05, -8.38056258e-06,
          -3.16115438e-05, -7.51245898e-05, -6.06511894e-05,
          -4.66248421e-05, -1.28687370e-05, 3.92989350e-05 ]
      - [ -3.49919151e-06, 1.27878153e-07, -9.41391875e-07,
          -5.16412399e-07, -3.46092997e-06, -1.04654316e-06,
          -4.34720732e-07, -6.51952746e-07, -7.25115297e-06,
          -4.25104008e-06, -6.12553640e-06, -1.07208161e-05,
          -5.66974904e-06, -7.25865561e-07, -6.19849231e-07,
          -8.11854477e-07, 2.77816489e-05, 3.04007972e-05,
          1.94419517e-05, 2.45908836e-06, -7.88360467e-06,
          9.49475691e-07, 1.55728430e-05, 1.55703510e-05, 1.35803002e-05,
          1.12730922e-05, -1.09194661e-06, -1.82576980e-06,
          -1.31246115e-05, -1.16437304e-05, 3.35580557e-06,
          1.43515008e-05, 8.26092128e-06, 1.11111949e-05, 1.35648979e-05,
          -4.82070163e-06, -8.09194353e-06, 3.09251982e-06,
          3.01960768e-06, 1.00083270e-07, 1.15088042e-05, 6.40132612e-06,
          1.53671917e-05, -5.47929812e-06, -2.66276056e-05,
          -3.55993234e-06, 7.50765082e-07, 3.99888722e-06,
          3.96102005e-05, 3.26260051e-05, 2.15661657e-06, 4.12377449e-06,
          4.63142933e-05, 4.71902349e-05, 4.25993603e-05, 2.52623468e-05,
          4.59328985e-05, 1.32471732e-05, -7.71807390e-06,
          -2.37515924e-05, -3.89127053e-05, -4.84187403e-05,
          -1.66002628e-05, 1.89702550e-05 ]
      - [ 6.30504073e-05, 9.02735701e-05, 6.95042982e-05, 1.21413832e-05,
          -5.67722709e-05, 5.97851431e-05, -2.50248650e-05,
          -5.03182928e-05, -1.81546711e-05, -8.60583896e-05,
          2.89427553e-05, 9.16302524e-05, -1.18426491e-04,
          -6.35933975e-05, -6.24239619e-05, 2.40412319e-05,
          -8.75311307e-05, -1.03245628e-04, -1.29764239e-05,
          -1.86945745e-05, 5.62495734e-05, 1.26139901e-04,
          -2.36653123e-05, -4.27493978e-05, 9.99908734e-05,
          4.42339660e-05, 4.16598277e-06, -6.39819918e-05,
          -1.61497053e-04, -1.40134289e-04, 2.98808282e-05,
          4.71833437e-06, -1.11752772e-04, -1.67308332e-04,
          -8.96315833e-05, 1.76297792e-04, 5.09414749e-05,
          -1.08608212e-04, -3.91492449e-06, -7.74360451e-05,
          -2.38479653e-04, 3.92324091e-06, -3.81277387e-05,
          3.28268616e-05, -1.14900911e-04, -1.71306689e-04,
          1.28906773e-04, 7.15703572e-05, -3.13537093e-05,
          -1.94532222e-05, 4.71031199e-05, -5.39038301e-05,
          -9.64414994e-06, -6.45194450e-06, 2.91371070e-05,
          2.24819014e-05, 4.88393925e-05, 5.72642748e-05, 4.07912958e-05,
          -4.02046817e-06, -8.06446678e-07, -3.75611198e-05,
          -5.58407628e-05, -4.04841339e-05 ]
      - [ 1.53986475e-05, 1.10634639e-04, 4.89690283e-05, 1.02210019e-04,
          1.82574309e-04, 7.17448056e-05, -8.08151017e-05,
          -2.06900768e-05, -1.00215831e-04, -2.56366529e-05,
          -2.14436186e-05, -1.60016771e-05, 4.43792924e-05,
          -3.50422415e-05, -4.82595206e-05, -1.10278350e-04,
          -4.68576400e-05, 1.97527799e-04, 9.24593987e-05,
          -1.12249596e-04, -1.05340587e-05, 2.79872882e-04,
          -7.09948508e-05, 1.28965316e-04, 8.22617658e-05,
          2.29092067e-04, 6.02306609e-05, 2.14570668e-04,
          -5.33951061e-05, -1.56172129e-04, -1.41298253e-04,
          -2.89137352e-05, -1.18207645e-04, -9.95457231e-05,
          -2.67975178e-04, 5.55929691e-05, -1.45766404e-04,
          -3.14036035e-04, 1.51613000e-04, -1.17664160e-04,
          -2.28470293e-04, 1.48494670e-04, 3.28904338e-04,
          -2.17839668e-04, -2.63519003e-04, -2.64307193e-04,
          -1.86663601e-04, -3.17955732e-06, -1.40230593e-04,
          -1.13890193e-04, -4.80005074e-05, -1.23360378e-05,
          -8.60614673e-05, -2.81896719e-05, -5.01512077e-05,
          -2.65029503e-05, -2.06197747e-05, 9.89170148e-05,
          1.47408515e-04, 1.87442391e-04, 2.22338258e-05,
          -2.89146519e-05, -1.23495134e-04, -2.22999406e-05 ]
      - [ -6.87666179e-05, 5.58453612e-05, -3.00016327e-05,
          2.35051575e-05, -1.14995506e-04, 8.12012877e-05,
          3.37649944e-05, 2.39761484e-05, -1.20191771e-05,
          3.95346615e-05, -1.01959005e-04, 3.87105902e-05,
          8.53114179e-05, 5.29645331e-05, -4.16432886e-05,
          -4.87316283e-05, 6.77865773e-06, -3.08873387e-05,
          1.92787866e-06, 6.64038598e-05, 2.15170967e-05,
          -2.99546919e-05, -2.36803880e-05, 6.52200868e-07,
          1.44203495e-05, 2.50939083e-05, 1.70915828e-05, 8.31423458e-05,
          5.60348817e-05, 2.81665762e-05, -5.61561865e-06,
          3.24835783e-05, -1.71365482e-05, -4.57209171e-06,
          -6.12829390e-05, 3.20223298e-05, -8.89791409e-05,
          -6.38701094e-05, -9.86489104e-05, -7.70249317e-05,
          -8.23432274e-05, 6.88098880e-05, 4.13690977e-05,
          1.01406613e-05, -3.75782365e-05, -5.83135989e-05,
          1.21621842e-05, -8.69833275e-06, -2.87236235e-05,
          1.42367289e-05, 5.71915825e-06, -3.96661198e-05,
          1.19801489e-05, -2.48647957e-05, -1.22497795e-05,
          -1.41074024e-05, -4.76617715e-05, 2.05626020e-06,
          1.75074547e-05, 3.79405627e-08, 9.66172865e-06, 6.09712197e-06,
          1.83091070e-05, 1.97033787e-05 ]
      - [ 1.93295229e-04, 1.28146012e-05, -2.30634505e-05,
          -1.69904539e-04, -3.83881961e-05, 5.73618599e-05,
          2.07788999e-05, -3.79557678e-05, -8.36656254e-05,
          -8.25154202e-05, -9.80291006e-05, -8.16792963e-05,
          -5.18573761e-05, 6.23367014e-05, -6.98375370e-05,
          -8.71171360e-05, 4.08279666e-05, -7.31188848e-05,
          -3.27921734e-05, -8.47641422e-06, -1.77809945e-08,
          -2.67090581e-05, -2.63058282e-05, 2.08584024e-05,
          -3.59560727e-05, 7.65790755e-05, 6.15581575e-06,
          -6.92635003e-05, -4.60031770e-05, -1.84149430e-05,
          -1.59263845e-06, -7.11068642e-05, -5.44400136e-05,
          -1.31427432e-05, -9.71666577e-06, -1.09992379e-05,
          -1.57113482e-05, -5.79128100e-05, 5.29183635e-05,
          6.08679184e-05, -9.39300589e-05, -5.17938497e-05,
          5.49768345e-07, 1.11343152e-05, -7.56728259e-05,
          -1.05441257e-04, -6.14221062e-05, -5.28111059e-06,
          -4.26000406e-05, -5.89286938e-05, -1.51636077e-05,
          5.75396225e-05, 1.81626910e-05, 4.33566020e-05, 8.74867401e-05,
          2.08600450e-05, -1.36942617e-05, 4.37187009e-05,
          -7.85754582e-06, -1.90309393e-07, -4.70973737e-06,
          -2.05016586e-05, -1.26578298e-05, -3.65635037e-06 ]
      - [ -2.69572447e-05, 1.75907462e-05, -1.16461260e-05,
          -3.37654783e-05, -2.42591545e-04, -1.01085294e-04,
          2.67467967e-05, 2.41933776e-06, -3.69794798e-05,
          -1.43641228e-05, -3.88116541e-06, -1.80606803e-04,
          -3.06554954e-04, -1.19730692e-04, -5.16847213e-05,
          2.56145831e-05, 2.71243392e-04, 4.04857492e-05, 3.18850198e-06,
          7.18621959e-05, -3.88073713e-05, -2.67898053e-04,
          -8.94333425e-05, 1.07870917e-04, 3.42975400e-04,
          5.10250647e-05, 2.39587898e-04, 8.61537701e-05,
          -2.72916979e-04, -2.96015962e-04, -1.08496597e-05,
          1.90988485e-05, 1.85426950e-04, 1.19824814e-04, 1.43846803e-04,
          -1.91621948e-04, -3.50066519e-04, -2.81260163e-05,
          1.66438287e-04, 5.94138837e-05, 4.42836135e-05, 8.83318135e-05,
          2.20630372e-05, -1.39337601e-04, -3.64895561e-04,
          -7.81433992e-05, 4.84209268e-05, 1.41236276e-04,
          -1.11840229e-04, -2.99691565e-05, 7.61869233e-05,
          1.35471375e-04, 3.13764212e-05, -6.99975408e-06,
          8.99213046e-05, 6.24680433e-06, -6.18853937e-06,
          1.47397499e-04, 1.18588796e-04, -6.25129323e-05,
          -7.11644461e-05, -7.61955889e-05, 1.93164160e-05,
          -8.67335621e-06 ]
      - [ -3.11283540e-04, -1.48522769e-04, -8.21608628e-05,
          1.69696417e-04, 5.47953241e-05, 5.08538033e-05,
          -1.64137411e-04, 7.97729808e-05, 9.71328973e-06,
          -1.53733708e-04, 9.64897845e-05, -1.44860105e-05,
          -7.72134954e-05, 1.05148109e-04, 4.78830225e-05,
          -1.02974365e-04, -8.74809266e-05, 2.18345362e-04,
          6.57832497e-05, 1.50767402e-04, 1.12021837e-04,
          -9.95911905e-05, 1.27470412e-04, 2.40819372e-05,
          -5.64483926e-05, -1.15237803e-04, -3.06583788e-05,
          1.01128353e-04, -7.51502921e-06, -1.28017040e-04,
          -3.09959316e-04, -3.99712560e-04, -3.16102407e-04,
          -5.88465491e-06, 2.66053357e-05, -6.20210340e-05,
          -1.92715335e-04, 1.53174100e-04, -1.29533437e-04,
          1.36585268e-05, 6.43982712e-05, 2.90359341e-04, 1.11770642e-04,
          2.32906867e-04, 4.64793739e-05, 1.99814705e-04,
          -1.84932869e-04, -1.75716035e-04, -1.48414911e-04,
          3.03147663e-05, -1.06252221e-04, 4.15961367e-05,
          1.08225167e-05, -1.49083222e-04, -4.13142807e-05,
          -5.96255668e-05, -7.14022972e-05, 4.21373297e-05,
          9.03038454e-05, 3.16400256e-05, -6.86064959e-06,
          -2.00345985e-05, 9.40081954e-05, -7.81002236e-05 ]
      - [ -4.54921945e-04, -2.42617170e-04, -2.31203943e-04,
          8.20493879e-05, 4.75128436e-05, 4.14252718e-05,
          -3.95312418e-05, 1.20764365e-04, 7.24817583e-05,
          2.95520185e-05, -1.78563350e-05, 1.24451355e-04,
          1.89846221e-04, -1.47809433e-05, -1.64433135e-04,
          -2.18293921e-04, 1.10925801e-04, 2.38971537e-04,
          -1.10831052e-05, 2.97646511e-05, 7.34800124e-05,
          -2.30809615e-04, 1.03589802e-04, -7.44911667e-05,
          2.41280723e-05, -2.11916442e-04, 5.13489649e-05,
          1.52748980e-04, 1.97386064e-04, 1.23003265e-04,
          -6.74221228e-05, -7.27804363e-05, 7.46252772e-05,
          6.00719090e-07, -1.11898218e-04, 7.58983660e-05,
          1.71912016e-05, -1.23437334e-04, -3.48629474e-05,
          -1.27305366e-05, 6.39062418e-05, 2.84017115e-05,
          6.35806573e-05, -1.00915357e-04, -1.46761649e-05,
          1.06216918e-04, 9.77233867e-05, 1.01391161e-05, 5.69451149e-05,
          -1.54292957e-05, -6.25673201e-05, -1.49963425e-05,
          3.99742712e-05, -7.83941432e-05, -1.44470923e-05,
          -4.30069995e-05, -5.45002740e-06, 2.96064468e-06,
          3.27961388e-05, 1.24085261e-06, 6.55449257e-05, 9.54190909e-05,
          2.39804158e-05, 4.76903369e-05 ]
      - [ -5.19677887e-05, 3.18023813e-05, -1.03806291e-04,
          -9.13866170e-05, 1.01691776e-05, -1.29496902e-05,
          2.28152003e-05, -9.58261153e-05, -6.13675656e-05,
          1.89613529e-05, -4.53907614e-06, -3.60706035e-05,
          8.53118399e-05, 2.11360784e-05, -9.61899514e-06,
          -3.51444542e-05, -6.15891395e-06, 5.94537687e-06,
          -5.83939945e-05, -4.41720185e-05, -7.32287881e-05,
          -6.29150236e-05, -1.85241006e-05, -4.79286246e-05,
          -1.79190956e-05, 2.69852444e-05, 2.85329606e-05,
          2.68711792e-05, 1.01181286e-04, 4.63601864e-05, 2.86299892e-05,
          7.04823615e-05, 1.27580988e-05, -1.84476812e-05,
          -8.66850132e-06, -5.59762484e-05, -1.59399842e-05,
          9.04116041e-06, -3.09175039e-06, 3.59067853e-05,
          1.05051422e-05, 1.28167740e-05, 1.65772963e-05, 1.48829304e-05,
          -3.51958879e-05, 5.46843585e-05, -4.43523895e-05,
          -7.59759569e-05, -5.96885866e-06, -1.91845138e-05,
          -2.39169731e-05, 2.83747286e-05, 2.44002622e-05,
          -9.42035228e-07, 9.67803317e-06, -1.10114715e-05,
          -9.44816202e-06, -1.36980798e-05, 1.31148026e-05,
          -7.47940203e-06, 9.13997269e-07, 2.84020189e-05,
          -1.45421311e-07, -7.71578107e-06 ]
      - [ 3.28618603e-06, -1.00439620e-05, -1.74472752e-05,
          -6.02456021e-05, -6.75867050e-05, 3.99449618e-06,
          5.28605960e-05, 1.60753807e-05, 2.30728438e-05, 2.93590310e-05,
          -1.08925005e-05, -4.88461083e-05, -3.83263832e-05,
          -2.05856777e-05, 2.90062071e-05, 6.59204852e-06,
          3.80883866e-05, 1.07610300e-04, 1.49589978e-04, 1.05701452e-04,
          -5.20427275e-05, 1.13791502e-05, 2.30128753e-05,
          2.06855493e-05, 6.01781794e-05, 5.84155605e-05, 1.07193824e-04,
          2.75056773e-05, 2.04449068e-04, 4.34509602e-05, 9.10301314e-05,
          5.93636978e-05, 1.51682078e-04, 1.31479712e-04, 7.71511986e-05,
          -8.51346122e-05, -7.09702072e-05, 8.45960458e-05,
          1.18429285e-04, 1.21219833e-04, 1.73139095e-04, 1.40278877e-04,
          7.02803809e-05, -1.03973303e-04, -1.99574628e-04,
          1.17245472e-04, 5.51642224e-05, 7.06325227e-05, 8.95531193e-05,
          9.39219444e-06, 4.18525342e-05, 4.39619689e-05, 3.05412505e-05,
          2.84097096e-05, -8.33264312e-06, -5.17353765e-05,
          2.77204526e-05, 3.58162324e-05, 9.38359221e-07, 4.46798913e-06,
          -8.48265627e-05, -6.67746353e-05, 5.42564692e-07,
          1.20020750e-05 ]
      - [ -6.53677271e-05, 8.96573256e-05, -1.91334868e-04,
          -1.35266484e-04, -1.63191609e-04, 1.43434212e-04,
          2.04161654e-04, -7.03195838e-05, -3.12659802e-04,
          -7.79886104e-05, -2.58457352e-04, -7.13630357e-07,
          -1.43499245e-04, -4.45452752e-05, 1.04558858e-04,
          -3.01715190e-04, 2.37150001e-04, -5.68128307e-05,
          1.65255158e-04, -1.93309352e-05, 1.54395922e-04,
          -1.64701662e-04, -7.45057478e-05, 5.51259691e-05,
          -1.43015277e-04, -8.57932901e-05, -8.02699942e-05,
          -7.41971671e-05, 5.21053698e-05, 6.28491543e-05,
          1.03474587e-04, 2.03431424e-04, 2.18289308e-04,
          -1.22973186e-04, -4.68596272e-06, -1.02267040e-04,
          1.69397332e-04, -2.35236337e-04, 2.30762616e-05,
          -8.45557879e-05, -1.75358349e-04, -3.54963704e-04,
          -1.28934800e-04, -2.12513012e-04, -1.95110169e-05,
          -7.09360102e-05, 2.57872423e-04, 1.85321638e-04,
          5.60204826e-05, 1.19389115e-04, -6.66194683e-05,
          -8.27973490e-05, 1.83798056e-05, -5.54438448e-05,
          -6.15437602e-05, -3.15407160e-05, -9.68425684e-06,
          -4.41167685e-06, -4.79355731e-06, 2.45539213e-05,
          1.12405447e-04, 1.54839887e-04, 1.48601888e-04, 9.39208694e-05 ]
      - [ 4.66658712e-05, 3.33136559e-05, 2.61550758e-05,
          -2.01114126e-05, 4.57170536e-05, 5.37633459e-05,
          5.50373588e-05, 2.16212356e-05, 4.37659728e-05, 3.19404135e-05,
          6.17726982e-05, -1.51455288e-06, 7.56147870e-07,
          -2.98858527e-06, 1.74328688e-05, 4.74206427e-05,
          1.04700615e-04, 3.31322481e-05, -7.77143723e-05,
          -1.17956581e-04, -3.19136961e-05, -8.79616528e-06,
          -3.60744452e-05, -4.65222874e-05, -7.15237402e-05,
          -1.09680775e-04, -9.91881279e-06, -4.00044082e-05,
          3.97110780e-05, 1.95527518e-05, 1.01483063e-04, 7.89422120e-05,
          3.30005264e-06, 3.23092718e-05, -1.25755960e-05,
          4.24855243e-05, 8.68994030e-05, 5.24194547e-05, 7.41000767e-05,
          -2.76410574e-05, -5.82901084e-05, -4.42132878e-05,
          -1.18550361e-05, -1.26015890e-04, -1.24708895e-04,
          -1.27981810e-04, 7.62505442e-06, 7.05301909e-06,
          1.33593581e-04, 4.77846479e-05, -2.35893203e-05,
          4.94007145e-05, 1.16893258e-04, 1.46897337e-05, 1.16383759e-04,
          4.30590444e-05, 1.45101745e-04, 6.86325347e-06, 4.79445880e-05,
          -1.02816150e-04, 3.26775307e-06, 1.32574583e-04,
          6.57716882e-05, 7.47464146e-05 ]
      - [ 4.81294637e-06, 3.87169030e-06, 2.51009442e-06, 5.02874764e-06,
          1.39757310e-06, 5.45890816e-06, 8.38614051e-06, 2.94466486e-06,
          -3.92813126e-06, -1.39362032e-06, -3.95277141e-07,
          -3.32636205e-06, -5.79866992e-06, -2.08642928e-06,
          -4.48400954e-07, 5.61215165e-06, 4.15628310e-05,
          2.95443006e-05, 1.58480179e-05, 4.47886578e-06,
          -2.06099940e-05, 1.22861900e-06, 1.39703689e-05,
          1.35651862e-05, 1.86373891e-05, 1.55737343e-05, 2.28266454e-05,
          1.90808873e-06, -2.70551868e-06, 6.54986525e-06,
          3.03591951e-05, 3.65464512e-05, 2.39497731e-05, 2.35290336e-05,
          3.61486127e-05, 2.94727556e-07, -1.11712361e-05,
          1.29348191e-05, 8.75642127e-06, 4.06757681e-06, 1.36003628e-05,
          1.94204404e-05, 1.78861537e-05, -1.67177986e-05,
          -4.16134862e-05, -1.88385256e-05, 9.76633874e-06,
          5.95967367e-06, 6.61431550e-05, 4.46116137e-05,
          -2.65705171e-06, 1.63695574e-06, 1.78491482e-05,
          6.80944652e-07, 3.14173158e-05, 3.33705648e-05, 8.86840498e-05,
          4.30848777e-05, 1.43585603e-05, -8.13169117e-06,
          8.62594425e-06, -5.08284120e-06, 9.97667848e-06,
          4.60474512e-05 ]
      - [ 3.43194813e-04, 5.05152741e-04, 1.35105569e-04,
          -9.86680061e-06, -5.08520170e-05, 1.71678243e-04,
          5.54329017e-06, -1.14262846e-04, -1.78175265e-04,
          -7.46927035e-05, 2.70845456e-04, -3.45778826e-04,
          -2.74530379e-04, 1.68371189e-05, 3.68712354e-04,
          1.36811199e-04, -3.04181831e-05, 7.22860350e-05,
          -2.20747053e-04, -2.07039790e-04, -1.07565229e-05,
          1.83759999e-04, 1.43772058e-05, -5.41491590e-06,
          -2.54506958e-05, 2.62116391e-05, -1.72155869e-05,
          -2.61883397e-04, -1.40333766e-04, -1.30351973e-05,
          -2.39966412e-05, 8.68471907e-05, 5.77234641e-06,
          2.72885460e-04, 3.12988268e-04, 4.95245986e-05, 2.30322039e-04,
          5.65586452e-05, 2.08519195e-04, 8.12401413e-05,
          -5.93922450e-05, -1.02624908e-04, -1.42724544e-04,
          -1.26356899e-04, 5.26337908e-06, -2.95446458e-04,
          -3.50152724e-04, -3.64932668e-04, 2.00922022e-05,
          2.47427161e-05, 1.39387630e-04, 1.86103862e-04,
          -2.82941292e-05, 5.57956228e-05, 1.19227312e-04,
          4.00138961e-05, -1.52632092e-05, 8.12576309e-06,
          -4.96951616e-05, 5.12195975e-08, -1.47291561e-04,
          -8.56779880e-05, 2.21102673e-05, -9.27784913e-06 ]
      - [ -1.31162260e-05, 1.79313593e-05, -1.83341508e-05,
          -9.48316665e-06, -8.65567417e-05, -3.90103669e-05,
          4.99404905e-06, 1.43342886e-05, 1.81066698e-05, 2.36335836e-05,
          -1.81375326e-05, -1.19209537e-04, -1.16786352e-04,
          -1.97030586e-05, -5.34424544e-05, 1.02808681e-05,
          1.83346638e-04, 6.59567231e-05, 6.38517304e-05,
          -8.83690809e-05, -8.22331640e-05, -1.09969485e-04,
          2.56905678e-05, 9.65888175e-05, 1.29924534e-04, 9.93247595e-05,
          1.05644162e-04, -1.07596978e-04, -2.60386907e-04,
          -1.53260713e-04, 2.85615442e-05, 1.26131927e-04,
          1.38668780e-04, 1.66965430e-04, 9.90335175e-05,
          -6.29039787e-05, -1.31199893e-04, 1.09099994e-04,
          9.28038717e-05, 9.78276294e-05, 4.04454659e-05, 2.81402190e-05,
          2.68216377e-06, -2.15304084e-04, -6.08251867e-05,
          -5.40491128e-05, 2.52220998e-05, 6.11399737e-05,
          2.55324867e-05, 3.20436702e-05, 1.53097106e-04, 7.46069709e-05,
          -3.23252862e-05, -3.20422732e-05, 1.10434929e-04,
          1.77710623e-04, 2.00179624e-04, 3.05369249e-05, 3.54690055e-05,
          -1.17601347e-04, -1.11529444e-04, -5.86343185e-06,
          -1.09556277e-04, -9.12375399e-05 ]
      - [ -4.66205383e-05, 1.13519593e-06, 7.30987231e-05,
          3.85285413e-04, 8.71425800e-05, 1.13387629e-04, 1.96380686e-04,
          1.71164866e-04, 2.52315571e-04, 1.66635364e-04,
          -6.48528949e-05, 2.72042817e-04, -1.39017808e-04,
          -2.65711260e-05, -1.10301953e-05, 8.78396677e-05,
          4.58598166e-04, -1.39653435e-04, 5.04938434e-05,
          1.83640426e-04, 1.67663748e-04, 1.47592727e-04, 2.49225210e-04,
          -4.98148620e-05, -9.02383454e-06, 5.09766614e-05,
          2.50526966e-04, 2.99619802e-04, -1.78535789e-04,
          -5.09833277e-04, 9.93181020e-05, 2.40760826e-04,
          -9.06727364e-05, 2.47645308e-04, 3.02968780e-04,
          1.44111153e-04, -4.44193982e-04, 3.86172498e-04,
          1.83286291e-04, 1.60513780e-04, 2.93702644e-04, 2.56166823e-04,
          5.26410760e-04, -9.84337166e-05, -5.79252490e-04,
          -9.14464399e-05, -2.23173425e-04, 1.93926593e-04,
          8.42999070e-05, 7.37341834e-05, -6.60472797e-05,
          -1.56559254e-05, 1.54575027e-04, 1.52263368e-04,
          -2.06267898e-04, 4.72077081e-05, 1.14484385e-04,
          2.30020727e-04, 2.28960256e-04, -7.14154085e-05,
          -1.67999387e-04, -3.00898188e-04, 2.89448599e-05,
          -1.69762061e-04 ]
   uncompressed_sv_total: 1554
   uncompressed_support_vectors:
      - [ 3.45962067e+02, 1.79623764e+02, 7.43942719e+01, 4.66464233e+02,
          3.39861420e+02, 2.87465729e+02, 1.60759003e+02, 1.61465546e+02,
          1.97649292e+02, 4.33947678e+01, 1.70290314e+02, 4.16590424e+02,
          1.09469226e+03, 4.93249939e+02, 5.59490845e+02, 5.51122894e+01,
          1.17428770e+04, 5.96548340e+03, 2.07680859e+03, 2.57522681e+03,
          5.52231738e+03, 4.53943268e+02, 4.72688818e+03, 2.48034961e+03,
          9.24811768e+02, 5.55409229e+03, 3.28699780e+03, 2.46501489e+03,
          4.79178418e+03, 1.97983179e+03, 5.45521338e+03, 1.02557520e+04,
          1.21381384e+03, 6.76713562e+02, 8.60578308e+02, 4.17212012e+03,
          2.02802515e+03, 1.35726331e+03, 1.12236182e+03, 1.32315820e+03,
          1.28507227e+03, 1.01447156e+03, 1.42197913e+03, 2.36835815e+03,
          2.99876416e+03, 1.35680078e+03, 7.90326050e+02, 5.29545227e+02,
          2.73046753e+03, 3.46372119e+03, 6.46009570e+03, 1.46489580e+04,
          1.43181963e+04, 4.21506689e+03, 3.61870850e+03, 4.55035449e+03,
          3.47027002e+03, 4.39962793e+03, 7.64589746e+03, 1.42215811e+04,
          1.78549219e+04, 6.62151904e+03, 3.69795728e+03, 1.66072327e+03 ]
      - [ 1.01121422e+02, 1.12044586e+02, 1.21671692e+02, 2.98466187e+02,
          1.71996204e+03, 5.88869568e+02, 5.64388618e+01, 1.06279503e+02,
          2.70198517e+02, 2.02714600e+02, 4.61355499e+02, 1.08950195e+03,
          9.00321045e+02, 3.68418091e+02, 7.03373184e+01, 1.11005447e+02,
          9.07028809e+03, 6.95216895e+03, 3.62703369e+03, 2.11104980e+03,
          3.53116675e+03, 1.22091809e+03, 1.49390991e+03, 2.19597949e+03,
          1.89969348e+03, 4.04017334e+03, 2.49897314e+03, 2.16942407e+03,
          5.69428809e+03, 3.15562158e+03, 5.32844092e+03, 9.79334375e+03,
          2.12524463e+03, 1.69553723e+03, 7.58400452e+02, 2.20345459e+03,
          2.23419238e+03, 1.41624109e+03, 6.53239197e+02, 1.29706799e+03,
          1.78037500e+03, 1.10646094e+03, 1.44063818e+03, 3.19539648e+03,
          3.23961646e+03, 1.29916040e+03, 1.05649670e+03, 2.99533417e+02,
          3.34773071e+03, 3.16882397e+03, 6.37834326e+03, 1.42641094e+04,
          1.19479990e+04, 5.26254834e+03, 5.73959814e+03, 5.03571387e+03,
          4.16471436e+03, 4.70866553e+03, 8.83667676e+03, 1.53081543e+04,
          1.40361660e+04, 6.15258887e+03, 3.22973486e+03, 2.27526611e+03 ]
      - [ 8.10171051e+01, 2.74606094e+01, 1.68133926e+02, 4.07138367e+02,
          3.09087616e+02, 1.18339874e+02, 1.78464188e+02, 0.,
          4.92132034e+01, 5.25527878e+01, 2.19812531e+02, 4.34499237e+02,
          3.71844116e+02, 9.39805603e+01, 0., 0., 8.81474792e+02,
          8.13863464e+02, 8.34518982e+02, 3.09589624e+03, 3.40464429e+03,
          1.49896277e+03, 1.55285864e+03, 8.90130920e+02, 1.17870618e+03,
          1.51775427e+03, 9.44586426e+02, 1.97413904e+03, 4.85196777e+03,
          3.29858203e+03, 1.05286145e+03, 2.03834915e+02, 3.16679565e+03,
          1.13910291e+03, 1.63456995e+03, 2.81664722e+03, 3.32881372e+03,
          1.66569189e+03, 1.22384424e+03, 1.16648499e+03, 2.07743774e+03,
          1.89669958e+03, 1.88008362e+03, 3.14608057e+03, 3.11617554e+03,
          1.48823804e+03, 3.99940063e+02, 8.63979919e+02, 1.43324990e+04,
          1.07289570e+04, 9.43582324e+03, 1.28620557e+04, 1.49629502e+04,
          7.46877100e+03, 1.07065752e+04, 1.37109697e+04, 8.37052344e+03,
          1.14612881e+04, 1.45472979e+04, 1.41660420e+04, 1.55274980e+04,
          1.02135225e+04, 7.75699707e+03, 1.33899697e+04 ]
      - [ 1.87476257e+02, 3.52575867e+02, 8.49153625e+02, 1.45919632e+02,
          9.95263428e+02, 7.68040283e+02, 8.64557114e+01, 8.75587616e+01,
          1.46490082e+02, 5.23392334e+01, 2.99507843e+02, 1.60790909e+02,
          5.32616211e+02, 7.38137283e+01, 3.81837654e+01, 2.18156891e+01,
          6.92555420e+02, 4.63440979e+02, 4.84705017e+02, 1.05165405e+03,
          4.48488037e+03, 2.56626074e+03, 9.38642029e+02, 3.58538330e+02,
          5.81155945e+02, 1.09009265e+03, 1.62574365e+03, 3.93327954e+03,
          4.26192334e+03, 2.05073389e+03, 6.83141846e+02, 1.06403210e+03,
          1.53960413e+03, 5.99322632e+02, 1.53268384e+03, 2.78557764e+03,
          3.91207910e+03, 1.71045862e+03, 8.76787292e+02, 8.28734589e+01,
          1.18158606e+03, 1.63910693e+03, 1.66826184e+03, 3.39394141e+03,
          4.21814893e+03, 1.83905933e+03, 5.98038635e+02, 5.49819092e+02,
          1.21488486e+04, 1.25517930e+04, 9.29637695e+03, 1.19270225e+04,
          1.48278838e+04, 9.60851367e+03, 1.24393691e+04, 1.32450879e+04,
          9.66791309e+03, 1.06257510e+04, 1.29199971e+04, 1.54609268e+04,
          1.64290977e+04, 1.14147207e+04, 1.19533486e+04, 1.25507383e+04 ]
      - [ 3.76620117e+02, 1.60066125e+03, 7.97464478e+02, 6.18152466e+02,
          9.80330048e+01, 7.77314941e+02, 7.11330322e+02, 1.64411911e+02,
          2.58755798e+02, 4.18039322e+01, 1.70593033e+02, 1.46574817e+03,
          6.69187195e+02, 8.32083282e+01, 2.18000015e+02, 7.07106829e+00,
          6.65731750e+02, 3.76741608e+02, 6.65049500e+02, 1.47312891e+03,
          4.43175586e+03, 1.19069873e+03, 1.60595203e+03, 6.58035645e+02,
          3.24442108e+02, 7.06542419e+02, 1.50030090e+03, 2.80563159e+03,
          5.20889355e+03, 2.47450562e+03, 8.01747375e+02, 5.42397400e+02,
          1.13342200e+03, 4.66092834e+02, 1.54164734e+03, 4.15737451e+03,
          5.12340625e+03, 2.47965723e+03, 1.10646619e+03, 3.84291565e+02,
          1.06101196e+03, 1.12165564e+03, 1.38593066e+03, 5.65590820e+03,
          4.42525000e+03, 1.34180737e+03, 1.06714795e+03, 6.69489990e+02,
          1.10859316e+04, 1.02957334e+04, 8.16289551e+03, 1.47672383e+04,
          1.44909756e+04, 1.01225869e+04, 1.50896152e+04, 8.94539355e+03,
          9.82968359e+03, 8.25376953e+03, 1.47681826e+04, 1.72473770e+04,
          1.68891836e+04, 9.02639258e+03, 1.41112324e+04, 1.20417305e+04 ]
      - [ 1.19124304e+03, 7.24927307e+02, 8.12849915e+02, 3.04839111e+02,
          5.38651855e+02, 7.98413162e+01, 1.75143066e+02, 2.98328686e+01,
          1.14225830e+02, 5.80886307e+01, 1.50321442e+02, 4.79007874e+02,
          8.85471008e+02, 6.01821213e+01, 1.70592377e+02, 4.50461578e+02,
          6.66936279e+02, 6.17017090e+02, 1.11511584e+03, 2.87564795e+03,
          3.06288574e+03, 2.11906763e+03, 1.16514319e+03, 7.26152344e+02,
          8.40011963e+02, 1.30694812e+03, 2.50680664e+03, 2.16782812e+03,
          4.07993921e+03, 2.41151172e+03, 1.93883826e+03, 5.02875031e+02,
          1.49772437e+03, 7.86539978e+02, 1.64604700e+03, 4.34512598e+03,
          5.89379102e+03, 2.42146021e+03, 1.14921704e+03, 1.73002808e+03,
          2.01045923e+03, 1.45444812e+03, 2.17877393e+03, 4.62556104e+03,
          4.36542773e+03, 2.91006274e+03, 1.20571619e+03, 6.59720764e+02,
          1.53569990e+04, 1.34373926e+04, 1.15601221e+04, 1.31464287e+04,
          1.68480586e+04, 1.43781621e+04, 1.34390322e+04, 1.25206748e+04,
          1.19677129e+04, 1.17513906e+04, 1.38686318e+04, 1.98397988e+04,
          1.78417832e+04, 1.13070771e+04, 1.70656172e+04, 9.15150684e+03 ]
      - [ 1.49970306e+02, 1.84390888e+01, 3.02432587e+02, 8.02195129e+02,
          2.83723663e+02, 1.57832825e+02, 1.70154129e+02, 5.51370316e+01,
          8.71086731e+01, 7.63585815e+01, 9.10931244e+01, 2.87389038e+02,
          6., 7.57768860e+01, 1.16832390e+01, 3.30301018e+01,
          3.41183655e+02, 1.10462073e+03, 8.29223816e+02, 3.22542065e+03,
          3.80294580e+03, 2.04720483e+03, 1.73323279e+03, 6.52796875e+02,
          8.15932129e+02, 1.45914368e+03, 2.58107593e+03, 2.82528418e+03,
          5.41024316e+03, 2.02344360e+03, 4.63055298e+02, 2.58095886e+02,
          1.65497595e+03, 1.74948926e+03, 3.06973584e+03, 4.68346094e+03,
          5.10619922e+03, 1.85323083e+03, 1.26626672e+03, 1.00262970e+03,
          2.70680542e+03, 2.30091821e+03, 1.93342444e+03, 4.59277100e+03,
          3.44733862e+03, 3.49483984e+03, 2.29881836e+03, 1.03279138e+03,
          1.42600029e+04, 1.01619102e+04, 1.37961074e+04, 1.49504600e+04,
          1.49169209e+04, 1.15116035e+04, 1.39637920e+04, 1.61606094e+04,
          1.01228633e+04, 1.14281582e+04, 1.47220830e+04, 1.58516562e+04,
          1.64773809e+04, 1.47134092e+04, 1.71758750e+04, 1.17895830e+04 ]
      - [ 34., 0., 0., 8.97201691e+01, 2.04795334e+02, 3.36695633e+01,
          8.63973083e+01, 4.14275169e+01, 5.35679550e+01, 1.10590790e+02,
          4.67550964e+01, 3.74688965e+02, 4.05868439e+02, 8.60232544e+00,
          7.30056286e+00, 0., 3.67343781e+02, 1.28754260e+03,
          1.36862219e+03, 1.83346899e+03, 4.49362842e+03, 2.29005908e+03,
          8.62489685e+02, 8.57107605e+02, 6.21355103e+02, 6.04929321e+02,
          1.91103333e+03, 3.29811255e+03, 4.69667432e+03, 1.43935571e+03,
          5.92186829e+02, 3.45293182e+02, 2.01704663e+03, 1.17497412e+03,
          2.27412915e+03, 4.60803564e+03, 3.96926733e+03, 2.29855322e+03,
          2.20247119e+03, 4.59145142e+02, 1.39394641e+03, 1.00437708e+03,
          1.77376819e+03, 3.74742896e+03, 3.22887769e+03, 3.35133813e+03,
          1.76392444e+03, 7.97616760e+02, 1.30963115e+04, 1.08046016e+04,
          1.44166982e+04, 1.37542461e+04, 1.88689121e+04, 1.53846719e+04,
          1.20905645e+04, 1.62801445e+04, 1.34201777e+04, 1.25119326e+04,
          1.50748496e+04, 1.51583408e+04, 1.82408848e+04, 1.87120098e+04,
          1.97608750e+04, 1.17129727e+04 ]
      - [ 1.20110771e+02, 8.46347656e+01, 7.24828796e+01, 5.55125809e+01,
          9.35891037e+01, 2.06902351e+01, 1.13666946e+02, 8.47680283e+01,
          6.94235764e+01, 1.86142712e+01, 5.91185837e+01, 9.28603058e+01,
          4.24271545e+02, 4.80788651e+01, 1.27279224e+01, 1.73044147e+01,
          4.63788849e+02, 4.43644806e+02, 1.20590259e+03, 2.11238452e+03,
          3.22965796e+03, 1.57862903e+03, 8.51161072e+02, 5.48238281e+02,
          8.18613708e+02, 6.57854431e+02, 9.40955078e+02, 2.55773755e+03,
          3.46716675e+03, 1.65402148e+03, 1.10698157e+03, 5.58316223e+02,
          1.05110388e+03, 6.69935425e+02, 2.43293408e+03, 3.70415332e+03,
          3.18699097e+03, 1.48112073e+03, 1.83198328e+03, 8.91129517e+02,
          6.71901001e+02, 6.62461609e+02, 1.22280469e+03, 2.96011060e+03,
          4.28258203e+03, 2.80047290e+03, 1.16344666e+03, 3.73728485e+02,
          1.14062842e+04, 1.03678105e+04, 1.28548105e+04, 1.90718320e+04,
          2.00400215e+04, 1.74813184e+04, 1.50441406e+04, 1.45058916e+04,
          1.27002129e+04, 1.32082979e+04, 1.61329980e+04, 1.56255977e+04,
          2.03823457e+04, 2.22873359e+04, 2.03981777e+04, 1.21559219e+04 ]
      - [ 1.58455261e+02, 4.80348740e+01, 8.23837433e+01, 5.09901953e+00,
          2.31622772e+01, 0., 3.31599998e+01, 3.38774261e+01,
          5.51975212e+01, 2.12132034e+01, 5.83832550e+01, 2.46560699e+02,
          2.15217102e+02, 4.27528801e+01, 2.93060379e+01, 7.02353973e+01,
          4.59185242e+02, 8.46312561e+02, 1.22053638e+03, 2.66816675e+03,
          3.98261743e+03, 1.19607629e+03, 6.33445923e+02, 3.74824432e+02,
          4.51936890e+02, 7.63599243e+02, 1.59722241e+03, 3.59270483e+03,
          3.52807129e+03, 1.53192029e+03, 6.34817078e+02, 3.82931915e+02,
          1.54091003e+03, 1.23576538e+03, 2.41378564e+03, 3.16237646e+03,
          4.14912158e+03, 2.36587354e+03, 1.83194092e+03, 1.34156116e+03,
          8.67337402e+02, 1.00132959e+03, 1.61924854e+03, 3.19467334e+03,
          4.35458984e+03, 3.25828491e+03, 1.13266663e+03, 4.70731934e+02,
          1.14422266e+04, 1.00076582e+04, 1.27753086e+04, 2.15267754e+04,
          2.13093398e+04, 1.76383965e+04, 1.55726104e+04, 1.51555420e+04,
          1.21905879e+04, 1.29651934e+04, 1.57174922e+04, 1.86880391e+04,
          2.24053398e+04, 1.90554297e+04, 2.36721914e+04, 1.18675391e+04 ]
      - [ 1.23731667e+02, 1.05971733e+02, 1.15466858e+02, 1.26491108e+01,
          5.30553856e+01, 8.94427204e+00, 1.61340389e+01, 6.32455540e+00,
          4.35718422e+01, 5.01797218e+01, 7.52412643e+01, 1.46218765e+02,
          7.33337631e+01, 1.92473602e+01, 1.00474159e+02, 3.51180458e+01,
          5.94970642e+02, 8.14350403e+02, 7.92140137e+02, 2.29089380e+03,
          4.32725732e+03, 1.40245935e+03, 1.02402039e+03, 2.23812973e+02,
          6.59981384e+02, 9.28886963e+02, 2.15522607e+03, 3.29127905e+03,
          2.78913989e+03, 1.57138269e+03, 1.11654456e+03, 3.50973633e+02,
          1.69475916e+03, 1.70195227e+03, 2.11569019e+03, 2.90705591e+03,
          3.54043237e+03, 2.59497803e+03, 1.93397156e+03, 8.92441956e+02,
          1.81669238e+03, 1.74257007e+03, 1.56385852e+03, 2.90671606e+03,
          3.58958105e+03, 2.37419238e+03, 1.74050732e+03, 1.53002722e+03,
          1.25600049e+04, 9.89332617e+03, 1.24238691e+04, 2.00063359e+04,
          1.81858809e+04, 1.66150977e+04, 1.40835361e+04, 1.18453555e+04,
          1.34731318e+04, 1.35119248e+04, 1.50909980e+04, 1.87371152e+04,
          1.80896133e+04, 1.48082129e+04, 1.97932422e+04, 1.49643320e+04 ]
      - [ 4.51622772e+01, 7.06901779e+01, 7.06192932e+01, 1.30776093e+02,
          2.61700878e+01, 0., 1.41421354e+00, 3.16227770e+00,
          1.11622772e+01, 4.24264050e+00, 2.06275101e+01, 5.50826759e+01,
          1.74258652e+02, 6.40713882e+01, 3.64474182e+01, 3.66961632e+01,
          7.82631836e+02, 7.43690735e+02, 1.31085181e+03, 2.32160693e+03,
          3.61679272e+03, 2.13541577e+03, 1.14367432e+03, 6.59987488e+02,
          7.43881104e+02, 1.06194519e+03, 1.65897534e+03, 3.47282959e+03,
          2.92037183e+03, 1.36916992e+03, 7.84792175e+02, 6.22079651e+02,
          2.15209351e+03, 1.20606055e+03, 1.27587476e+03, 2.85999854e+03,
          3.59108740e+03, 2.53860229e+03, 1.88171533e+03, 1.23503455e+03,
          1.64185864e+03, 1.32726025e+03, 1.47166223e+03, 1.86235388e+03,
          2.78357275e+03, 1.97847815e+03, 1.75667590e+03, 1.29511414e+03,
          1.44743672e+04, 9.08679395e+03, 1.14926865e+04, 1.88283496e+04,
          2.01341270e+04, 1.38292139e+04, 1.33600029e+04, 1.11853955e+04,
          1.21605049e+04, 1.69380195e+04, 1.26312393e+04, 2.00594785e+04,
          1.79673184e+04, 1.29656064e+04, 1.62054814e+04, 1.64388320e+04 ]
      - [ 1.82612972e+01, 1.03381432e+02, 1.15080864e+02, 1.65850800e+02,
          1.02462111e+01, 0., 2.82842708e+00, 0., 1.91622772e+01,
          2.71841908e+01, 2.78023643e+01, 1.16302116e+02, 3.86634613e+02,
          1.02093262e+02, 7.24477768e+01, 6.34113808e+01, 6.44598389e+02,
          5.03275116e+02, 1.09310828e+03, 2.81847998e+03, 3.49130640e+03,
          1.72339307e+03, 1.19706299e+03, 9.87623413e+02, 7.08969482e+02,
          1.01170282e+03, 1.16194299e+03, 2.64823242e+03, 3.03424512e+03,
          1.51648364e+03, 1.12487292e+03, 7.50518433e+02, 1.55375061e+03,
          1.26789685e+03, 1.38391077e+03, 3.02314331e+03, 3.20835059e+03,
          2.82101440e+03, 1.83366443e+03, 1.57241223e+03, 1.36212097e+03,
          9.75479248e+02, 1.53653809e+03, 2.31893311e+03, 2.30923413e+03,
          2.10403223e+03, 1.25816284e+03, 1.65536206e+03, 1.30035635e+04,
          1.33662471e+04, 1.24229912e+04, 1.92134766e+04, 2.10723262e+04,
          1.16560986e+04, 1.52371758e+04, 1.00340234e+04, 1.38594736e+04,
          1.68468613e+04, 1.41942793e+04, 1.95932363e+04, 1.72988965e+04,
          1.50443047e+04, 1.72976582e+04, 1.44352900e+04 ]
      - [ 1.47727982e+02, 3.33849213e+02, 6.11212769e+01, 5.60389038e+02,
          8.19962311e+01, 0., 5.83095169e+00, 3.25799561e+01,
          9.10453644e+01, 3.74531097e+01, 3.01134033e+02, 2.78497314e+02,
          6.03906677e+02, 2.90134491e+02, 1.65529461e+01, 1.58821564e+02,
          7.62459961e+02, 6.10652588e+02, 1.74022314e+03, 2.64714185e+03,
          3.26884937e+03, 1.58207507e+03, 7.63152649e+02, 9.65805725e+02,
          9.29020447e+02, 1.26908386e+03, 1.95670544e+03, 2.96917188e+03,
          2.61634253e+03, 1.08227881e+03, 6.05195984e+02, 6.75622375e+02,
          2.29731201e+03, 7.57192993e+02, 1.29091077e+03, 3.30779858e+03,
          3.21800342e+03, 1.94694995e+03, 1.93389014e+03, 8.10575562e+02,
          1.52851038e+03, 1.39239697e+03, 2.07973560e+03, 1.90372083e+03,
          2.78139062e+03, 1.64509424e+03, 1.15195789e+03, 1.24030737e+03,
          1.53347568e+04, 1.10180420e+04, 1.20989121e+04, 1.59643330e+04,
          2.14678262e+04, 1.58015469e+04, 1.36574277e+04, 1.00795361e+04,
          1.22671104e+04, 1.52565254e+04, 1.54267100e+04, 1.82862617e+04,
          1.75832832e+04, 1.83200527e+04, 1.41848223e+04, 1.35094648e+04 ]
      - [ 9.00907211e+01, 3.33550720e+01, 5.08581581e+01, 2.49102722e+02,
          1.74087753e+02, 7.85651093e+01, 4.61541100e+01, 4.30552139e+01,
          5.14868317e+01, 3.97385712e+01, 1.02956305e+01, 1.12015518e+02,
          2.70466705e+02, 8.37365189e+01, 8.66459503e+01, 4.87705498e+01,
          7.88665039e+02, 6.57203796e+02, 1.87806689e+03, 2.25326074e+03,
          3.91239111e+03, 1.31792896e+03, 8.11037598e+02, 5.68078247e+02,
          4.42339569e+02, 1.32453699e+03, 1.69503137e+03, 2.58400122e+03,
          3.80764258e+03, 1.83468164e+03, 9.71491150e+02, 8.43863770e+02,
          2.04990283e+03, 1.10389868e+03, 8.32369629e+02, 1.55694995e+03,
          1.70944104e+03, 1.44798425e+03, 1.42338879e+03, 7.03508362e+02,
          1.76493799e+03, 1.01942181e+03, 1.53841431e+03, 2.07581470e+03,
          2.61298682e+03, 2.32884155e+03, 1.28225159e+03, 5.42717712e+02,
          1.69090996e+04, 1.08737041e+04, 9.98770801e+03, 1.66909004e+04,
          2.26718359e+04, 1.50884678e+04, 1.48363760e+04, 1.05868418e+04,
          1.13681934e+04, 1.45529844e+04, 1.37753721e+04, 2.08499219e+04,
          1.88931797e+04, 1.61046035e+04, 1.44095596e+04, 1.25677031e+04 ]
      - [ 1.04803505e+02, 1.29636307e+02, 9.26201019e+01, 3.82715912e+02,
          4.64623474e+02, 3.16011139e+02, 1.26964325e+02, 0.,
          9.70453644e+01, 3.64896202e+01, 8.72759323e+01, 4.17593048e+02,
          8.91431763e+02, 4.40990479e+02, 6.29648247e+01, 5.49190140e+01,
          3.77001465e+02, 6.80687317e+02, 8.00216003e+02, 2.86297290e+03,
          4.88587354e+03, 1.81556763e+03, 1.01313361e+03, 5.60484070e+02,
          4.96311951e+02, 8.09213379e+02, 1.31873022e+03, 2.69193774e+03,
          5.11943555e+03, 1.65155920e+03, 7.91634521e+02, 2.77265015e+02,
          1.96787329e+03, 8.51229370e+02, 1.41429626e+03, 1.70896680e+03,
          1.64477026e+03, 1.14935327e+03, 1.27657776e+03, 5.31233154e+02,
          1.40298914e+03, 1.27691980e+03, 2.12044702e+03, 1.44538477e+03,
          3.06958838e+03, 1.65149817e+03, 1.28964844e+03, 4.15689117e+02,
          1.58374600e+04, 1.23271895e+04, 1.12995645e+04, 1.77333457e+04,
          1.99898242e+04, 1.49731992e+04, 1.30194902e+04, 1.09449141e+04,
          8.85762402e+03, 1.35858857e+04, 1.81298184e+04, 1.63343008e+04,
          2.13483066e+04, 1.44881279e+04, 1.43785107e+04, 1.23199590e+04 ]
      - [ 100., 8.28155060e+01, 9.91309052e+01, 5.23719116e+02,
          1.19789221e+03, 1.75294479e+02, 1.13914810e+02, 3.86005173e+01,
          1.55099014e+02, 1.44222050e+01, 1.53715347e+02, 3.64499756e+02,
          1.69356567e+03, 3.75888519e+02, 1.55729828e+02, 0.,
          7.13418884e+02, 4.48085571e+02, 1.24639954e+03, 1.76824817e+03,
          5.00078955e+03, 1.67788428e+03, 1.11053174e+03, 4.91153809e+02,
          6.75730103e+02, 7.30597961e+02, 1.75714221e+03, 2.15274097e+03,
          4.74786230e+03, 1.07832947e+03, 7.37408020e+02, 3.20059540e+02,
          1.39259009e+03, 1.03407141e+03, 1.48193481e+03, 2.95095654e+03,
          1.82491809e+03, 9.29262878e+02, 1.03942163e+03, 5.29026001e+02,
          1.32347302e+03, 7.49740479e+02, 1.70856799e+03, 2.91601001e+03,
          3.05292407e+03, 1.24006189e+03, 9.43105713e+02, 7.43992615e+02,
          1.35892939e+04, 1.14072100e+04, 1.21720078e+04, 1.81919688e+04,
          2.08744941e+04, 1.52179980e+04, 1.45737188e+04, 8.34431934e+03,
          8.67626270e+03, 1.32156982e+04, 1.35840693e+04, 1.98605508e+04,
          2.24848906e+04, 1.43242666e+04, 1.22072227e+04, 1.44045400e+04 ]
      - [ 188., 1.37537247e+02, 6.67083206e+01, 7.41961487e+02,
          1.00858643e+03, 1.38139709e+02, 1.68436783e+02, 0.,
          8.25602188e+01, 8.60232544e+00, 3.14515915e+01, 2.72951172e+02,
          2.12202441e+03, 1.73281830e+02, 9.87107697e+01, 0.,
          4.95377472e+02, 4.85397339e+02, 6.68312439e+02, 2.35408057e+03,
          5.01487891e+03, 1.12900122e+03, 8.57572510e+02, 5.55740173e+02,
          3.61752197e+02, 6.79830994e+02, 1.01544080e+03, 2.59167773e+03,
          4.19031201e+03, 1.09095361e+03, 4.41551117e+02, 4.13458649e+02,
          1.24701392e+03, 9.30007996e+02, 1.61396704e+03, 2.03500061e+03,
          1.35118665e+03, 7.67615845e+02, 8.33221130e+02, 5.09204010e+02,
          1.32828503e+03, 6.77843933e+02, 1.52051807e+03, 2.82137427e+03,
          2.79351733e+03, 1.17744812e+03, 9.55164978e+02, 5.29864807e+02,
          1.43801016e+04, 1.14178262e+04, 1.19542031e+04, 1.48010918e+04,
          2.08466680e+04, 1.74032441e+04, 1.32906885e+04, 9.02768262e+03,
          6.62882959e+03, 1.04234707e+04, 1.90602109e+04, 2.04421172e+04,
          1.91527695e+04, 1.30486221e+04, 1.21308154e+04, 1.45271914e+04 ]
      - [ 2.06762070e+02, 5.65685415e+00, 1.84700439e+02, 1.72761765e+02,
          9.05364746e+02, 1.17011528e+02, 1.03584852e+01, 1.41421366e+01,
          94., 2.17579098e+01, 4.42944679e+01, 4.20454071e+02,
          1.43225891e+03, 4.91813965e+02, 7.42579041e+01, 2.15406590e+01,
          3.59720032e+02, 3.09194305e+02, 5.60736694e+02, 2.20713062e+03,
          4.88186230e+03, 2.49633569e+03, 1.27757251e+03, 1.97891464e+02,
          4.02464966e+02, 3.31437012e+02, 1.45629895e+03, 2.14968823e+03,
          5.44156348e+03, 1.42222998e+03, 3.08362427e+02, 1.07336792e+02,
          1.01775623e+03, 1.04154724e+03, 1.09580872e+03, 1.55877905e+03,
          1.34635876e+03, 5.46338928e+02, 8.00210571e+02, 4.02117188e+02,
          1.36228894e+03, 6.66439758e+02, 1.90994336e+03, 2.39842822e+03,
          3.19558691e+03, 1.28962854e+03, 1.19651233e+03, 4.64586151e+02,
          1.56310127e+04, 1.31011621e+04, 1.17305273e+04, 1.54300293e+04,
          2.30925859e+04, 1.84308105e+04, 1.33627119e+04, 8.60688184e+03,
          8.37779297e+03, 7.81402979e+03, 2.01984590e+04, 2.28118672e+04,
          2.04061406e+04, 1.63634697e+04, 1.23536748e+04, 1.27953486e+04 ]
      - [ 2.24581757e+02, 3.96988678e+01, 2.37599609e+02, 3.98402466e+02,
          8.14412720e+02, 2.70185127e+01, 1.70293865e+01, 0.,
          1.17218872e+02, 5.66044464e+01, 2.26274918e+02, 3.95841064e+02,
          2.05679346e+03, 7.96999878e+02, 1.21431366e+02, 6.33583488e+01,
          4.31233917e+02, 5.35467102e+02, 9.35706055e+02, 2.94876025e+03,
          4.63867529e+03, 2.91498779e+03, 1.32087903e+03, 8.46477234e+02,
          4.40074402e+02, 9.50654663e+02, 1.76429785e+03, 2.67343677e+03,
          5.59930225e+03, 1.54423132e+03, 3.43687775e+02, 3.73139130e+02,
          1.37016418e+03, 8.62747498e+02, 1.27623523e+03, 2.95123486e+03,
          2.78853784e+03, 7.04854797e+02, 5.48887573e+02, 3.94212158e+02,
          1.27737659e+03, 1.48866235e+03, 2.34485352e+03, 2.64763623e+03,
          3.78727710e+03, 1.74301514e+03, 1.00181177e+03, 6.65261353e+02,
          1.49637988e+04, 1.18356670e+04, 1.07121641e+04, 1.69948340e+04,
          2.57550723e+04, 1.94377285e+04, 1.20539307e+04, 1.06070557e+04,
          9.09882227e+03, 8.46667578e+03, 1.89503086e+04, 2.24852246e+04,
          2.54585742e+04, 1.73362910e+04, 1.19311201e+04, 1.37747334e+04 ]
      - [ 172., 7.61577368e+00, 2.13697327e+02, 6.88863464e+02,
          2.63681244e+02, 4.92231979e+01, 8.28081360e+01, 8.24621105e+00,
          128., 2.42157288e+01, 9.16829529e+01, 8.61176025e+02,
          1.95687634e+03, 8.42892822e+02, 9.86726303e+01, 1.34397263e+02,
          4.65526672e+02, 3.90539673e+02, 1.11603906e+03, 2.67250586e+03,
          5.09010059e+03, 2.04388037e+03, 1.19772607e+03, 5.50021851e+02,
          6.39677612e+02, 6.59133545e+02, 1.43295105e+03, 3.15234644e+03,
          5.02909033e+03, 1.20478748e+03, 6.70166382e+02, 2.93191498e+02,
          9.05343750e+02, 6.61181030e+02, 1.64734875e+03, 2.54944971e+03,
          2.91881714e+03, 8.98299866e+02, 8.12705383e+02, 2.84072052e+02,
          1.22071545e+03, 8.93224426e+02, 1.84619006e+03, 2.86652051e+03,
          4.06364111e+03, 1.39065710e+03, 7.96420593e+02, 7.74338196e+02,
          1.43152656e+04, 7.29556152e+03, 1.00617383e+04, 1.44200381e+04,
          2.60976055e+04, 1.54458877e+04, 1.10478242e+04, 8.76290137e+03,
          7.99309326e+03, 9.32684082e+03, 1.63073145e+04, 1.69574121e+04,
          2.50076582e+04, 1.64176621e+04, 1.24158711e+04, 1.29264756e+04 ]
      - [ 2.33811386e+02, 7.98337250e+01, 2.49970261e+02, 4.76721405e+02,
          3.26721405e+02, 5.96657372e+01, 1.45831421e+02, 0.,
          9.98328705e+01, 0., 8.68944244e+01, 9.60983032e+02,
          1.88877344e+03, 7.80415466e+02, 2.39887177e+02, 6.90984650e+01,
          5.19361206e+02, 3.57151245e+02, 4.67258179e+02, 1.92756152e+03,
          4.31742822e+03, 2.51416235e+03, 1.08165906e+03, 7.45324707e+02,
          5.44005310e+02, 6.47703186e+02, 8.11314575e+02, 2.42688525e+03,
          5.35250977e+03, 7.35160278e+02, 1.12808960e+03, 2.07323166e+02,
          1.41160645e+03, 9.61464172e+02, 1.24665540e+03, 3.46979565e+03,
          2.04548535e+03, 1.02578430e+03, 9.71701843e+02, 4.46338867e+02,
          1.50816846e+03, 1.56811633e+03, 2.21634692e+03, 4.21188037e+03,
          3.74089844e+03, 1.89231763e+03, 1.00538904e+03, 3.71576355e+02,
          1.43766689e+04, 9.40219922e+03, 7.80891895e+03, 1.40856504e+04,
          2.51954531e+04, 1.64013008e+04, 1.14124961e+04, 8.18128564e+03,
          1.14436924e+04, 9.64073730e+03, 1.28735537e+04, 1.65999238e+04,
          2.64863008e+04, 1.48093955e+04, 1.47294639e+04, 1.27067334e+04 ]
      - [ 3.34089233e+02, 3.41595795e+02, 9.71550903e+01, 1.00440533e+03,
          1.03537158e+03, 4.08166656e+01, 4.81666641e+01, 0.,
          2.44413116e+02, 2.86356430e+01, 1.34561493e+02, 9.84261169e+02,
          1.30212927e+03, 5.45126038e+02, 1.54767593e+02, 8.57752533e+01,
          4.54321198e+02, 4.89233307e+02, 5.82409546e+02, 1.79340735e+03,
          3.66618628e+03, 1.75597241e+03, 1.21984509e+03, 9.48967346e+02,
          1.01308508e+03, 5.86779785e+02, 7.81806152e+02, 3.11379590e+03,
          4.66692139e+03, 1.44481897e+03, 9.94852295e+02, 4.75025146e+02,
          1.05469604e+03, 1.29365161e+03, 2.03123962e+03, 2.89126465e+03,
          1.80781079e+03, 1.98718262e+03, 8.84505493e+02, 3.12718292e+02,
          1.44282764e+03, 9.06164185e+02, 2.88819531e+03, 3.12225122e+03,
          3.51748120e+03, 1.29445215e+03, 7.40166504e+02, 6.42472229e+02,
          1.37013984e+04, 7.35281494e+03, 1.05941533e+04, 1.50020791e+04,
          2.25588457e+04, 2.09210781e+04, 9.72111426e+03, 1.04603379e+04,
          8.47639160e+03, 8.42613770e+03, 1.51526406e+04, 1.60185430e+04,
          2.63633027e+04, 2.17609629e+04, 1.32227334e+04, 1.03284570e+04 ]
      - [ 3.33256866e+02, 1.20329880e+02, 3.34384369e+02, 6.33123535e+02,
          9.18215332e+02, 2.07276535e+02, 3.22490311e+01, 1.72145905e+02,
          1.84725037e+02, 1.05397736e+02, 1.58373093e+02, 3.59704102e+02,
          8.07430359e+02, 3.16089722e+02, 1.74258026e+02, 1.44233749e+02,
          7.55658997e+02, 6.61373901e+02, 7.21028992e+02, 1.62501685e+03,
          4.63108887e+03, 2.07313525e+03, 1.45036670e+03, 1.16136572e+03,
          6.68672180e+02, 6.18531311e+02, 8.99605347e+02, 3.46478101e+03,
          6.23054248e+03, 1.56173010e+03, 7.11300354e+02, 2.93252197e+02,
          1.44868469e+03, 2.07773950e+03, 1.46674597e+03, 2.61354541e+03,
          2.04903101e+03, 1.48579272e+03, 1.07706079e+03, 1.32419617e+03,
          1.43277856e+03, 8.78591125e+02, 2.27685254e+03, 3.25152539e+03,
          2.69034448e+03, 1.80901501e+03, 6.62838684e+02, 5.87852600e+02,
          1.40350928e+04, 9.03278906e+03, 1.18090635e+04, 1.37616904e+04,
          2.64575391e+04, 1.76883125e+04, 1.04083242e+04, 8.28838184e+03,
          8.56924414e+03, 9.61662891e+03, 1.31912695e+04, 1.99713105e+04,
          2.95338301e+04, 1.96073477e+04, 1.01423037e+04, 1.03534502e+04 ]
      - [ 1.36499023e+02, 9.41055908e+01, 2.15070099e+02, 7.87060730e+02,
          1.00075128e+03, 4.04859375e+02, 4.70359863e+02, 4.61735840e+01,
          3.90920532e+02, 0., 2.82570007e+02, 3.51002777e+02,
          6.18672791e+02, 4.28200874e+01, 1.86986023e+02, 0.,
          4.72371979e+02, 4.66356689e+02, 7.50560181e+02, 1.26374060e+03,
          3.13570776e+03, 3.89902368e+03, 1.93824084e+03, 8.21129944e+02,
          9.33192017e+02, 5.90700317e+02, 9.55204895e+02, 2.88212549e+03,
          5.34910547e+03, 2.03859448e+03, 9.82023865e+02, 5.43934204e+02,
          1.64498352e+03, 1.41659045e+03, 1.99268945e+03, 3.01755737e+03,
          2.63135156e+03, 1.67273047e+03, 1.22755469e+03, 4.49960083e+02,
          1.80921313e+03, 1.02918323e+03, 1.61049207e+03, 2.13934424e+03,
          2.51528223e+03, 1.00103369e+03, 8.87280823e+02, 5.97521912e+02,
          1.23055225e+04, 1.15080420e+04, 1.45173486e+04, 1.70831133e+04,
          2.20864883e+04, 1.49104512e+04, 9.49179004e+03, 8.73053711e+03,
          7.75623730e+03, 1.39906348e+04, 1.42625596e+04, 1.74714219e+04,
          2.94366367e+04, 1.74968242e+04, 1.20353018e+04, 7.95683789e+03 ]
      - [ 126., 0., 4.59902954e+02, 8.24856079e+02, 8.04369202e+02,
          1.90232208e+02, 1.29520950e+02, 2.83018799e+02, 3.69048157e+02,
          2.62813446e+02, 2.60387543e+02, 2.14501205e+02, 9.25784668e+02,
          3.38852295e+02, 5.94656715e+01, 3.36818352e+01, 5.95876038e+02,
          7.22504944e+02, 6.38507019e+02, 1.03509521e+03, 3.53622998e+03,
          3.92540454e+03, 9.90918640e+02, 1.14729883e+03, 8.18877808e+02,
          3.30382141e+02, 1.02844556e+03, 1.97941736e+03, 3.74568921e+03,
          1.88016370e+03, 1.98883521e+03, 1.05529443e+03, 1.16248914e+03,
          6.06239502e+02, 2.03166187e+03, 2.84779980e+03, 4.25797070e+03,
          1.22564087e+03, 8.50241028e+02, 3.49050690e+02, 1.16399036e+03,
          8.83766235e+02, 1.74701221e+03, 1.70600159e+03, 2.47690405e+03,
          1.20187341e+03, 7.29077454e+02, 5.60298828e+02, 8.84783398e+03,
          1.03684609e+04, 1.24277861e+04, 2.00797090e+04, 2.21495742e+04,
          1.46943877e+04, 8.93861523e+03, 6.13040820e+03, 9.01735352e+03,
          1.32275098e+04, 1.35319961e+04, 2.06602148e+04, 2.47150938e+04,
          1.53001094e+04, 1.21634707e+04, 1.15670977e+04 ]
      - [ 1.65909805e+02, 0., 1.06929878e+02, 1.12867749e+03,
          5.56146729e+02, 4.26736206e+02, 1.95726959e+02, 4.83748207e+01,
          2.06331055e+02, 4.39286804e+02, 4.49292572e+02, 4.95436554e+02,
          9.52232483e+02, 6.56455811e+02, 1.72194336e+02, 1.61832230e+02,
          3.99343658e+02, 7.56136902e+02, 9.11481018e+02, 1.42711768e+03,
          3.29300317e+03, 2.84080396e+03, 1.81165833e+03, 5.47299377e+02,
          8.98942871e+02, 9.56842346e+02, 1.11579834e+03, 1.56429846e+03,
          2.73272412e+03, 2.42422656e+03, 1.75455396e+03, 6.34862427e+02,
          6.05756470e+02, 1.22857410e+03, 1.35700342e+03, 2.75129321e+03,
          3.23232007e+03, 1.39133496e+03, 7.74834900e+02, 2.44380386e+02,
          6.69060364e+02, 5.30616455e+02, 1.03583899e+03, 1.54115796e+03,
          1.59241882e+03, 7.13391907e+02, 4.49361267e+02, 4.68093811e+02,
          7.45196826e+03, 1.11532041e+04, 1.15185820e+04, 1.61664648e+04,
          2.49084043e+04, 1.18532500e+04, 7.72992725e+03, 5.95278125e+03,
          7.55127637e+03, 1.04609053e+04, 1.43880469e+04, 2.10064668e+04,
          2.11555156e+04, 1.49387637e+04, 1.06670869e+04, 8.04454932e+03 ]
      - [ 2.79534576e+02, 1.14218170e+02, 1.37879364e+02, 6.47952698e+02,
          9.06967957e+02, 1.88819290e+02, 1.76925888e+02, 1.46359558e+02,
          3.34129272e+02, 3.51268768e+02, 1.97534912e+02, 2.50488907e+02,
          6.95662598e+02, 6.81593689e+02, 3.48814606e+02, 6.96419449e+01,
          4.42357025e+02, 4.95806946e+02, 8.45499634e+02, 3.62222314e+03,
          2.93796802e+03, 1.39100500e+03, 1.10173389e+03, 6.06275024e+02,
          1.00585345e+03, 3.25368011e+02, 1.15888293e+03, 1.83345166e+03,
          4.37084277e+03, 1.33571326e+03, 1.25239136e+03, 5.17023132e+02,
          7.12854736e+02, 5.96854614e+02, 1.21812378e+03, 2.22773218e+03,
          2.05255322e+03, 1.09472009e+03, 4.91756592e+02, 3.13378448e+02,
          1.12931775e+03, 5.32848206e+02, 4.14423492e+02, 1.03900500e+03,
          1.23473621e+03, 6.11199585e+02, 5.34535889e+02, 5.74273438e+02,
          8.33726172e+03, 8.22038477e+03, 9.72375586e+03, 1.55885840e+04,
          2.24377344e+04, 1.32636543e+04, 8.99614062e+03, 6.37166357e+03,
          6.53851562e+03, 8.46044629e+03, 1.09687021e+04, 1.85104707e+04,
          2.26179199e+04, 1.59644619e+04, 9.29430859e+03, 8.83863672e+03 ]
      - [ 2.08700485e+02, 1.49984985e+02, 1.50557327e+02, 1.09247383e+02,
          2.68444916e+02, 4.85984711e+02, 1.78377991e+02, 2.23864685e+02,
          3.24540100e+02, 2.05245331e+02, 3.40974236e+01, 2.63268707e+02,
          1.00247351e+03, 2.21364563e+02, 3.43974976e+02, 1.81971115e+02,
          6.17597168e+02, 7.25536560e+02, 1.07352612e+03, 3.12564087e+03,
          3.68202100e+03, 1.68260059e+03, 8.27319580e+02, 7.33408264e+02,
          6.57812439e+02, 8.34204102e+02, 1.32803015e+03, 2.74441992e+03,
          4.78582324e+03, 1.05028577e+03, 1.09684509e+03, 6.38036316e+02,
          7.17421631e+02, 4.96800171e+02, 9.42167053e+02, 2.93494019e+03,
          1.68047571e+03, 1.01991980e+03, 7.41411682e+02, 4.77376434e+02,
          6.48865540e+02, 8.33224426e+02, 3.50095764e+02, 2.21462354e+03,
          1.73884558e+03, 1.20224939e+03, 7.01108032e+02, 2.14437408e+02,
          6.16013184e+03, 8.93544238e+03, 1.04563047e+04, 2.04779844e+04,
          2.28332344e+04, 1.32571621e+04, 7.59344141e+03, 5.37456934e+03,
          7.40070410e+03, 9.67850781e+03, 1.33352617e+04, 1.83055762e+04,
          2.45554121e+04, 1.54997471e+04, 1.09120107e+04, 7.18291211e+03 ]
      - [ 4.54043427e+02, 1.21570351e+02, 1.12463715e+02, 1.27713211e+02,
          84., 0., 1.35667175e+02, 1.18141251e+02, 2.08013885e+02,
          1.00497894e+02, 4.88983978e+02, 7.30748596e+02, 2.35982086e+02,
          6.89401398e+01, 1.24175842e+02, 2.68396362e+02, 5.01421295e+02,
          9.10199890e+02, 8.23023376e+02, 1.82111975e+03, 4.59446338e+03,
          1.92477441e+03, 1.15664709e+03, 6.46129456e+02, 1.04863782e+03,
          8.47524719e+02, 1.36038159e+03, 2.28122754e+03, 5.50550439e+03,
          1.98844739e+03, 1.26835291e+03, 5.47345276e+02, 1.08657019e+03,
          5.39880005e+02, 1.34725708e+03, 2.21784448e+03, 2.06720142e+03,
          7.49922607e+02, 4.79449249e+02, 2.55687256e+02, 7.75948792e+02,
          7.39296143e+02, 9.21433228e+02, 3.50335962e+03, 2.17128906e+03,
          5.55594055e+02, 5.33785278e+02, 6.28936829e+02, 7.38973291e+03,
          7.79329883e+03, 8.71726953e+03, 1.45741133e+04, 1.95226797e+04,
          1.17015713e+04, 1.38172881e+04, 6.43770508e+03, 6.71434668e+03,
          6.76859375e+03, 1.31135762e+04, 1.55355449e+04, 2.11096484e+04,
          1.44176562e+04, 1.15488389e+04, 7.70293115e+03 ]
      - [ 3.13345398e+02, 1.28449097e+02, 5.09936157e+02, 8.32688522e+01,
          1.49224411e+02, 6.50408936e+01, 1.54711075e+02, 5.12978210e+01,
          1.32174225e+02, 6.67097015e+01, 1.91808990e+02, 4.82684509e+02,
          4.23183197e+02, 1.93563187e+02, 8.09094162e+01, 4.03375183e+02,
          5.17532166e+02, 6.43321045e+02, 7.62328308e+02, 1.66957178e+03,
          4.30986133e+03, 2.00276904e+03, 9.20846130e+02, 3.74124664e+02,
          4.11711212e+02, 9.46284302e+02, 8.52445862e+02, 2.37527173e+03,
          5.37775146e+03, 1.81396472e+03, 4.66463013e+02, 4.39814484e+02,
          5.37648621e+02, 7.72731445e+02, 1.32188635e+03, 2.13797388e+03,
          1.92185645e+03, 9.33853394e+02, 3.64813202e+02, 3.10431427e+02,
          5.54336426e+02, 5.72593811e+02, 1.30180103e+03, 2.48347729e+03,
          2.06888989e+03, 6.89891541e+02, 5.74868286e+02, 2.61203369e+02,
          6.24517383e+03, 5.12029932e+03, 8.52651758e+03, 1.26250215e+04,
          1.79134160e+04, 1.58108428e+04, 1.16009512e+04, 7.34553418e+03,
          5.16962256e+03, 4.65287988e+03, 1.16444375e+04, 1.63225908e+04,
          1.77620137e+04, 1.52338408e+04, 1.12581279e+04, 8.48603223e+03 ]
      - [ 3.87375946e+02, 1.80737564e+02, 4.16661865e+02, 4.59265289e+02,
          4.73307922e+02, 1.80259857e+02, 2.10321827e+01, 0.,
          5.09901953e+00, 0., 1.10141068e+02, 7.09431946e+02,
          7.66572632e+02, 1.29086584e+03, 3.04750549e+02, 1.97972137e+02,
          6.02950989e+02, 3.62286896e+02, 8.79332642e+02, 2.89956812e+03,
          5.42383545e+03, 1.85396216e+03, 1.05377258e+03, 6.10840332e+02,
          8.53280090e+02, 8.12447021e+02, 2.16585229e+03, 3.28604004e+03,
          4.60012305e+03, 1.77277197e+03, 8.85872925e+02, 3.48207947e+02,
          1.16588892e+03, 7.22349365e+02, 1.46277100e+03, 2.64983325e+03,
          2.76507080e+03, 7.30004639e+02, 3.62971222e+02, 3.11983307e+02,
          1.28105310e+03, 1.10212598e+03, 2.37796387e+03, 3.14827026e+03,
          2.00970020e+03, 1.34227905e+03, 8.19159058e+02, 2.15978531e+02,
          7.88771387e+03, 6.59220801e+03, 8.14878369e+03, 1.27171572e+04,
          2.05895215e+04, 1.80642344e+04, 9.76574707e+03, 5.39756982e+03,
          6.57371680e+03, 6.32720898e+03, 9.93798145e+03, 1.85845801e+04,
          2.18579375e+04, 1.55653643e+04, 9.17788281e+03, 1.04418477e+04 ]
      - [ 8.32937622e+01, 0., 5.95269775e+01, 0., 2.49882617e+03,
          2.14468536e+02, 5.38604393e+01, 2.36289692e+01, 1.07071068e+02,
          3.84036713e+01, 3.27429779e+02, 1.04376904e+03, 2.73394226e+02,
          1.28062487e+01, 1.34980072e+02, 8.04665375e+01, 4.00253082e+02,
          1.52499951e+03, 1.53034473e+03, 2.80303931e+03, 4.84837061e+03,
          1.43096338e+03, 1.04344751e+03, 7.46824463e+02, 1.21988391e+03,
          9.61129822e+02, 2.74038501e+03, 2.48538257e+03, 5.14634668e+03,
          1.70227832e+03, 6.17915588e+02, 5.97028381e+02, 9.73761475e+02,
          8.23040466e+02, 1.86946960e+03, 2.58541455e+03, 2.74056958e+03,
          8.82682373e+02, 4.78240143e+02, 2.98008667e+02, 1.07184570e+03,
          6.17431824e+02, 1.59014465e+03, 2.88418921e+03, 1.60673608e+03,
          8.69191711e+02, 5.53519348e+02, 2.07831223e+02, 6.77759521e+03,
          5.83585840e+03, 1.09140908e+04, 1.48625420e+04, 2.49368516e+04,
          1.60462783e+04, 9.87015234e+03, 7.86762109e+03, 7.07390332e+03,
          7.94872705e+03, 1.24994023e+04, 1.73940801e+04, 2.33752090e+04,
          1.74692793e+04, 1.36338643e+04, 8.55822852e+03 ]
      - [ 144., 3.55294380e+01, 5.10475006e+02, 8.69926941e+02,
          1.48991174e+03, 2.33223328e+02, 0., 3.51283379e+01,
          9.18567734e+01, 5.65685415e+00, 3.04373932e+02, 1.15686938e+03,
          4.31711884e+02, 1.87132523e+02, 1.58113871e+01, 0.,
          4.98864807e+02, 5.40095337e+02, 1.53317773e+03, 3.37394824e+03,
          5.31807178e+03, 2.43324097e+03, 9.10395752e+02, 7.13635803e+02,
          8.00986938e+02, 8.03281250e+02, 2.09264185e+03, 4.66521045e+03,
          4.80748438e+03, 2.25908569e+03, 1.00680890e+03, 2.47159546e+02,
          9.92027710e+02, 9.19675537e+02, 1.61416956e+03, 2.65204688e+03,
          2.93377930e+03, 1.10952576e+03, 8.87190735e+02, 4.58250153e+02,
          9.78146484e+02, 6.18870239e+02, 1.58318335e+03, 2.84588965e+03,
          1.31723901e+03, 8.35684326e+02, 3.38200714e+02, 5.44681641e+02,
          7.37834961e+03, 5.59262598e+03, 1.14515146e+04, 1.60957539e+04,
          2.58964102e+04, 2.04370996e+04, 8.72736523e+03, 5.81282031e+03,
          6.98900098e+03, 7.97223633e+03, 1.14458457e+04, 2.52788281e+04,
          2.50522324e+04, 1.59706318e+04, 1.14402344e+04, 8.79730078e+03 ]
      - [ 2.22596283e+02, 2.93067108e+02, 3.88087402e+02, 1.47935254e+03,
          8.09068237e+02, 1.71957306e+02, 4.25434494e+01, 0.,
          1.93547348e+02, 1.85719864e+02, 1.67438278e+02, 2.04093674e+02,
          186., 5.72720642e+01, 5.36656342e+01, 9.98427505e+01,
          4.74087097e+02, 1.03090625e+03, 2.76074585e+03, 2.81759033e+03,
          5.51663525e+03, 2.19651660e+03, 1.10588660e+03, 2.99319611e+02,
          9.94551575e+02, 1.15724658e+03, 1.79372839e+03, 6.29696338e+03,
          6.50221875e+03, 2.39020435e+03, 5.67564453e+02, 4.13863556e+02,
          1.14958069e+03, 1.03259485e+03, 2.09986914e+03, 3.03688770e+03,
          3.08365576e+03, 1.27486108e+03, 9.26409485e+02, 4.78479401e+02,
          1.28418225e+03, 7.82559265e+02, 1.41811902e+03, 2.06460889e+03,
          1.75706506e+03, 9.55599670e+02, 3.77219391e+02, 3.53827454e+02,
          7.29811670e+03, 7.60149023e+03, 1.02149443e+04, 2.06854707e+04,
          2.55963906e+04, 1.74013262e+04, 8.79572852e+03, 5.16821582e+03,
          7.41500342e+03, 6.83345557e+03, 1.25578076e+04, 2.91452852e+04,
          2.38519902e+04, 1.55139766e+04, 1.09631445e+04, 8.16504785e+03 ]
      - [ 2.20291275e+02, 3.73357269e+02, 3.16678406e+02, 1.02531824e+03,
          1.10386987e+03, 3.47777618e+02, 2.49637589e+02, 1.10507240e+02,
          1.90678757e+02, 1.39553787e+02, 2.27880676e+02, 3.20120735e+01,
          8.35446655e+02, 7.97740402e+01, 1.84115005e+02, 9.88401184e+01,
          3.82446960e+02, 5.66979309e+02, 1.74033142e+03, 3.56203296e+03,
          5.63281055e+03, 2.31776709e+03, 5.61011902e+02, 3.96964081e+02,
          6.67089050e+02, 1.23306018e+03, 2.34258228e+03, 5.83591943e+03,
          5.48135596e+03, 2.71625781e+03, 8.62493286e+02, 3.47803345e+02,
          1.06027344e+03, 1.03928760e+03, 2.17873486e+03, 3.41973755e+03,
          2.66589380e+03, 1.71858167e+03, 5.97425110e+02, 4.21108948e+02,
          1.15754236e+03, 6.15509155e+02, 1.56565393e+03, 3.21972266e+03,
          2.13359985e+03, 1.23793921e+03, 6.55444275e+02, 2.21729553e+02,
          7.65807959e+03, 9.84998242e+03, 9.23153125e+03, 1.98501602e+04,
          2.80733457e+04, 1.92449473e+04, 7.52662451e+03, 4.51743115e+03,
          7.75255127e+03, 8.98034766e+03, 1.43733008e+04, 2.88232305e+04,
          2.25022637e+04, 1.75579199e+04, 1.03908330e+04, 8.40501562e+03 ]
      - [ 3.63371399e+02, 3.73417816e+02, 9.39872513e+01, 1.75845593e+03,
          8.73513306e+02, 1.74864777e+02, 1.70028336e+02, 1.43100037e+02,
          3.45973938e+02, 1.72092926e+02, 4.38523102e+02, 7.72232483e+02,
          7.32799377e+02, 1.08097366e+02, 1.09278809e+02, 2.16516281e+02,
          3.95693237e+02, 7.32178528e+02, 1.23859900e+03, 3.92096606e+03,
          3.97820288e+03, 1.30103760e+03, 6.27437134e+02, 4.21789032e+02,
