<?xml version="1.0"?>
<opencv_storage>
<cascade>
  <stageType>BOOST</stageType>
  <featureType>HAAR</featureType>
  <height>50</height>
  <width>50</width>
  <stageParams>
    <boostType>GAB</boostType>
    <minHitRate>9.9500000476837158e-01</minHitRate>
    <maxFalseAlarm>5.0000000000000000e-01</maxFalseAlarm>
    <weightTrimRate>9.4999999999999996e-01</weightTrimRate>
    <maxDepth>1</maxDepth>
    <maxWeakCount>100</maxWeakCount></stageParams>
  <featureParams>
    <maxCatCount>0</maxCatCount>
    <featSize>1</featSize>
    <mode>BASIC</mode></featureParams>
  <stageNum>10</stageNum>
  <stages>
    <!-- stage 0 -->
    <_>
      <maxWeakCount>9</maxWeakCount>
      <stageThreshold>-7.1874517202377319e-01</stageThreshold>
      <weakClassifiers>
        <_>
          <internalNodes>
            0 -1 4 -4.6975332498550415e-01</internalNodes>
          <leafValues>
            -9.3646758794784546e-01 6.0247778892517090e-01</leafValues></_>
        <_>
          <internalNodes>
            0 -1 102 4.6134352684020996e-02</internalNodes>
          <leafValues>
            -3.3588036894798279e-01 7.8349262475967407e-01</leafValues></_>
        <_>
          <internalNodes>
            0 -1 68 -2.4171495810151100e-02</internalNodes>
          <leafValues>
            -5.1867580413818359e-01 4.8086619377136230e-01</leafValues></_>
        <_>
          <internalNodes>
            0 -1 64 7.1400970220565796e-02</internalNodes>
          <leafValues>
            -2.2216035425662994e-01 7.9032081365585327e-01</leafValues></_>
        <_>
          <internalNodes>
            0 -1 72 -5.3482141345739365e-02</internalNodes>
          <leafValues>
            9.3700677156448364e-01 -1.6863164305686951e-01</leafValues></_>
        <_>
          <internalNodes>
            0 -1 111 -1.1492908000946045e-02</internalNodes>
          <leafValues>
            7.2899305820465088e-01 -2.0730186998844147e-01</leafValues></_>
        <_>
          <internalNodes>
            0 -1 65 -3.8091748952865601e-02</internalNodes>
          <leafValues>
            9.6073800325393677e-01 -6.9738112390041351e-02</leafValues></_>
        <_>
          <internalNodes>
            0 -1 6 -6.6387906670570374e-02</internalNodes>
          <leafValues>
            7.8654021024703979e-01 -1.4216688275337219e-01</leafValues></_>
        <_>
          <internalNodes>
            0 -1 70 -9.0150944888591766e-03</internalNodes>
          <leafValues>
            8.8840526342391968e-01 -1.6580265760421753e-01</leafValues></_></weakClassifiers></_>
    <!-- stage 1 -->
    <_>
      <maxWeakCount>12</maxWeakCount>
      <stageThreshold>-8.6271607875823975e-01</stageThreshold>
      <weakClassifiers>
        <_>
          <internalNodes>
            0 -1 33 2.7268223464488983e-02</internalNodes>
          <leafValues>
            -1.8909306824207306e-01 6.4664059877395630e-01</leafValues></_>
        <_>
          <internalNodes>
            0 -1 52 -7.3132216930389404e-02</internalNodes>
          <leafValues>
            9.0784007310867310e-01 -1.3841755688190460e-01</leafValues></_>
        <_>
          <internalNodes>
            0 -1 85 2.1952349692583084e-02</internalNodes>
          <leafValues>
            -1.1116415262222290e-01 8.5853034257888794e-01</leafValues></_>
        <_>
          <internalNodes>
            0 -1 96 1.5844162553548813e-02</internalNodes>
          <leafValues>
            -2.9201766848564148e-01 3.9760497212409973e-01</leafValues></_>
        <_>
          <internalNodes>
            0 -1 130 -3.8118474185466766e-02</internalNodes>
          <leafValues>
            7.6961517333984375e-01 -1.9163574278354645e-01</leafValues></_>
        <_>
          <internalNodes>
            0 -1 104 -1.8501780927181244e-02</internalNodes>
          <leafValues>
            7.9253667593002319e-01 -1.2322420626878738e-01</leafValues></_>
        <_>
          <internalNodes>
            0 -1 57 -4.7643437981605530e-02</internalNodes>
          <leafValues>
            7.9748630523681641e-01 -1.7585581541061401e-01</leafValues></_>
        <_>
          <internalNodes>
            0 -1 75 5.3356736898422241e-03</internalNodes>
          <leafValues>
            -1.2932458519935608e-01 8.4876406192779541e-01</leafValues></_>
        <_>
          <internalNodes>
            0 -1 126 -1.0949872434139252e-02</internalNodes>
          <leafValues>
            -4.7492989897727966e-01 2.4590238928794861e-01</leafValues></_>
        <_>
          <internalNodes>
            0 -1 143 -2.6286326348781586e-02</internalNodes>
          <leafValues>
            7.5949788093566895e-01 -1.5242436528205872e-01</leafValues></_>
        <_>
          <internalNodes>
            0 -1 103 -2.9668251052498817e-02</internalNodes>
          <leafValues>
            6.1363774538040161e-01 -1.9756771624088287e-01</leafValues></_>
        <_>
          <internalNodes>
            0 -1 99 7.9815689241513610e-04</internalNodes>
          <leafValues>
            -1.5162174403667450e-01 5.9210640192031860e-01</leafValues></_></weakClassifiers></_>
    <!-- stage 2 -->
    <_>
      <maxWeakCount>15</maxWeakCount>
      <stageThreshold>-7.9210621118545532e-01</stageThreshold>
      <weakClassifiers>
        <_>
          <internalNodes>
            0 -1 29 -7.3534652590751648e-02</internalNodes>
          <leafValues>
            8.7914228439331055e-01 4.9645390361547470e-02</leafValues></_>
        <_>
          <internalNodes>
            0 -1 9 1.6226664185523987e-02</internalNodes>
          <leafValues>
            -2.7208575606346130e-01 4.5896252989768982e-01</leafValues></_>
        <_>
          <internalNodes>
            0 -1 66 2.2742649540305138e-02</internalNodes>
          <leafValues>
            -1.8574507534503937e-01 7.1536761522293091e-01</leafValues></_>
        <_>
          <internalNodes>
            0 -1 87 -5.0036460161209106e-02</internalNodes>
          <leafValues>
            9.3095576763153076e-01 -1.5375724434852600e-01</leafValues></_>
        <_>
          <internalNodes>
            0 -1 80 3.8625996559858322e-02</internalNodes>
          <leafValues>
            -1.2773069739341736e-01 7.4254572391510010e-01</leafValues></_>
        <_>
          <internalNodes>
            0 -1 154 -8.6023509502410889e-03</internalNodes>
          <leafValues>
            -5.9927123785018921e-01 2.4832747876644135e-01</leafValues></_>
        <_>
          <internalNodes>
            0 -1 74 -2.6238122954964638e-02</internalNodes>
          <leafValues>
            8.5839939117431641e-01 -1.4308330416679382e-01</leafValues></_>
        <_>
          <internalNodes>
            0 -1 137 1.2474883988033980e-04</internalNodes>
          <leafValues>
            -1.4330047369003296e-01 6.2655121088027954e-01</leafValues></_>
        <_>
          <internalNodes>
            0 -1 63 8.0052681732922792e-04</internalNodes>
          <leafValues>
            -2.0528611540794373e-01 4.7450345754623413e-01</leafValues></_>
        <_>
          <internalNodes>
            0 -1 24 -2.7603813214227557e-04</internalNodes>
          <leafValues>
            5.7903707027435303e-01 -1.4295575022697449e-01</leafValues></_>
        <_>
          <internalNodes>
            0 -1 121 -8.4972204640507698e-03</internalNodes>
          <leafValues>
            -3.5674446821212769e-01 2.5627198815345764e-01</leafValues></_>
        <_>
          <internalNodes>
            0 -1 61 -6.5421662293374538e-04</internalNodes>
          <leafValues>
            6.5695232152938843e-01 -1.4006531238555908e-01</leafValues></_>
        <_>
          <internalNodes>
            0 -1 105 2.9452322633005679e-04</internalNodes>
          <leafValues>
            -1.4073352515697479e-01 6.0593247413635254e-01</leafValues></_>
        <_>
          <internalNodes>
            0 -1 84 3.1584021053276956e-04</internalNodes>
          <leafValues>
            -1.4129088819026947e-01 6.0463935136795044e-01</leafValues></_>
        <_>
          <internalNodes>
            0 -1 54 -9.0109556913375854e-03</internalNodes>
          <leafValues>
            6.1984890699386597e-01 -1.2843801081180573e-01</leafValues></_></weakClassifiers></_>
    <!-- stage 3 -->
    <_>
      <maxWeakCount>16</maxWeakCount>
      <stageThreshold>-1.0468873977661133e+00</stageThreshold>
      <weakClassifiers>
        <_>
          <internalNodes>
            0 -1 25 -5.4875396192073822e-02</internalNodes>
          <leafValues>
            7.4264341592788696e-01 4.4088177382946014e-03</leafValues></_>
        <_>
          <internalNodes>
            0 -1 8 -1.1800433509051800e-02</internalNodes>
          <leafValues>
            -4.5965379476547241e-01 3.1440615653991699e-01</leafValues></_>
        <_>
          <internalNodes>
            0 -1 21 -5.1436163485050201e-02</internalNodes>
          <leafValues>
            9.0351361036300659e-01 -1.4251635968685150e-01</leafValues></_>
        <_>
          <internalNodes>
            0 -1 71 -6.6882863640785217e-02</internalNodes>
          <leafValues>
            7.5612521171569824e-01 -2.2383584082126617e-01</leafValues></_>
        <_>
          <internalNodes>
            0 -1 123 -7.1955821476876736e-03</internalNodes>
          <leafValues>
            8.0060631036758423e-01 -5.9571973979473114e-02</leafValues></_>
        <_>
          <internalNodes>
            0 -1 56 -4.4787168502807617e-02</internalNodes>
          <leafValues>
            9.2923092842102051e-01 -1.0094292461872101e-01</leafValues></_>
        <_>
          <internalNodes>
            0 -1 17 -4.3005034327507019e-02</internalNodes>
          <leafValues>
            8.0488395690917969e-01 -1.0672893375158310e-01</leafValues></_>
        <_>
          <internalNodes>
            0 -1 120 3.9350618608295918e-03</internalNodes>
          <leafValues>
            -2.8799530863761902e-01 3.5265788435935974e-01</leafValues></_>
        <_>
          <internalNodes>
            0 -1 11 9.9840745329856873e-02</internalNodes>
          <leafValues>
            1.4381870627403259e-01 -7.4062770605087280e-01</leafValues></_>
        <_>
          <internalNodes>
            0 -1 149 -5.4672263562679291e-02</internalNodes>
          <leafValues>
            -4.4724008440971375e-01 2.2146582603454590e-01</leafValues></_>
        <_>
          <internalNodes>
            0 -1 129 -1.0741389356553555e-02</internalNodes>
          <leafValues>
            8.0231738090515137e-01 -1.3602136075496674e-01</leafValues></_>
        <_>
          <internalNodes>
            0 -1 140 -2.1842312067747116e-02</internalNodes>
          <leafValues>
            6.9718635082244873e-01 -1.1391656845808029e-01</leafValues></_>
        <_>
          <internalNodes>
            0 -1 73 1.8103780166711658e-04</internalNodes>
          <leafValues>
            -1.6370806097984314e-01 5.7791203260421753e-01</leafValues></_>
        <_>
          <internalNodes>
            0 -1 139 3.4607261419296265e-02</internalNodes>
          <leafValues>
            -1.3163824379444122e-01 6.6556036472320557e-01</leafValues></_>
        <_>
          <internalNodes>
            0 -1 67 -1.6659442917443812e-04</internalNodes>
          <leafValues>
            5.9300291538238525e-01 -1.6114768385887146e-01</leafValues></_>
        <_>
          <internalNodes>
            0 -1 131 -1.9385301857255399e-04</internalNodes>
          <leafValues>
            5.3634202480316162e-01 -1.7249229550361633e-01</leafValues></_></weakClassifiers></_>
    <!-- stage 4 -->
    <_>
      <maxWeakCount>16</maxWeakCount>
      <stageThreshold>-7.1649581193923950e-01</stageThreshold>
      <weakClassifiers>
        <_>
          <internalNodes>
            0 -1 35 -9.7125425934791565e-02</internalNodes>
          <leafValues>
            8.9974069595336914e-01 1.3730181753635406e-01</leafValues></_>
        <_>
          <internalNodes>
            0 -1 12 -1.1561712250113487e-02</internalNodes>
          <leafValues>
            -3.6781165003776550e-01 3.2329109311103821e-01</leafValues></_>
        <_>
          <internalNodes>
            0 -1 108 -2.6291908696293831e-02</internalNodes>
          <leafValues>
            9.1805100440979004e-01 -1.1275945603847504e-01</leafValues></_>
        <_>
          <internalNodes>
            0 -1 28 -3.6858227103948593e-02</internalNodes>
          <leafValues>
            7.6437002420425415e-01 -1.7116850614547729e-01</leafValues></_>
        <_>
          <internalNodes>
            0 -1 1 -1.2259476631879807e-01</internalNodes>
          <leafValues>
            -6.7000174522399902e-01 1.9855417311191559e-01</leafValues></_>
        <_>
          <internalNodes>
            0 -1 30 1.0503322118893266e-04</internalNodes>
          <leafValues>
            -2.0043249428272247e-01 5.3066122531890869e-01</leafValues></_>
        <_>
          <internalNodes>
            0 -1 30 -8.2371610915288329e-05</internalNodes>
          <leafValues>
            4.9120727181434631e-01 -1.6360229253768921e-01</leafValues></_>
        <_>
          <internalNodes>
            0 -1 151 -3.4749633632600307e-03</internalNodes>
          <leafValues>
            -4.4783797860145569e-01 2.1255004405975342e-01</leafValues></_>
        <_>
          <internalNodes>
            0 -1 88 -2.3993441835045815e-02</internalNodes>
          <leafValues>
            8.3259904384613037e-01 -1.1563107371330261e-01</leafValues></_>
        <_>
          <internalNodes>
            0 -1 114 -1.9073620438575745e-02</internalNodes>
          <leafValues>
            7.4534583091735840e-01 -1.1620894819498062e-01</leafValues></_>
        <_>
          <internalNodes>
            0 -1 92 -6.4400630071759224e-03</internalNodes>
          <leafValues>
            7.6745599508285522e-01 -1.0093253850936890e-01</leafValues></_>
        <_>
          <internalNodes>
            0 -1 145 -3.8415059447288513e-02</internalNodes>
          <leafValues>
            8.1909847259521484e-01 -9.4919726252555847e-02</leafValues></_>
        <_>
          <internalNodes>
            0 -1 82 1.1305755004286766e-02</internalNodes>
          <leafValues>
            -1.2287430465221405e-01 6.7379361391067505e-01</leafValues></_>
        <_>
          <internalNodes>
            0 -1 69 5.5080377496778965e-03</internalNodes>
          <leafValues>
            -1.1015071719884872e-01 7.9174506664276123e-01</leafValues></_>
        <_>
          <internalNodes>
            0 -1 0 -3.5553020425140858e-03</internalNodes>
          <leafValues>
            -4.6792933344841003e-01 2.2172790765762329e-01</leafValues></_>
        <_>
          <internalNodes>
            0 -1 5 9.9350810050964355e-03</internalNodes>
          <leafValues>
            1.8986195325851440e-01 -5.3755527734756470e-01</leafValues></_></weakClassifiers></_>
    <!-- stage 5 -->
    <_>
      <maxWeakCount>18</maxWeakCount>
      <stageThreshold>-9.6913903951644897e-01</stageThreshold>
      <weakClassifiers>
        <_>
          <internalNodes>
            0 -1 94 5.1397129893302917e-02</internalNodes>
          <leafValues>
            6.2271062284708023e-02 7.5141245126724243e-01</leafValues></_>
        <_>
          <internalNodes>
            0 -1 36 -7.4172234162688255e-03</internalNodes>
          <leafValues>
            -3.1794658303260803e-01 3.0257707834243774e-01</leafValues></_>
        <_>
          <internalNodes>
            0 -1 117 3.0638810130767524e-04</internalNodes>
          <leafValues>
            -1.7267864942550659e-01 5.7637810707092285e-01</leafValues></_>
        <_>
          <internalNodes>
            0 -1 118 -5.1198276923969388e-04</internalNodes>
          <leafValues>
            6.4334279298782349e-01 -2.0312862098217010e-01</leafValues></_>
        <_>
          <internalNodes>
            0 -1 45 -3.8216780871152878e-02</internalNodes>
          <leafValues>
            7.7290576696395874e-01 -8.0458365380764008e-02</leafValues></_>
        <_>
          <internalNodes>
            0 -1 81 -6.4200952649116516e-02</internalNodes>
          <leafValues>
            7.8928142786026001e-01 -1.1920036375522614e-01</leafValues></_>
        <_>
          <internalNodes>
            0 -1 125 -1.4418294653296471e-02</internalNodes>
          <leafValues>
            6.6616505384445190e-01 -1.2010942399501801e-01</leafValues></_>
        <_>
          <internalNodes>
            0 -1 133 2.0810709975194186e-04</internalNodes>
          <leafValues>
            -1.3508348166942596e-01 5.5051892995834351e-01</leafValues></_>
        <_>
          <internalNodes>
            0 -1 76 5.7467899750918150e-04</internalNodes>
          <leafValues>
            -1.4548286795616150e-01 5.4667359590530396e-01</leafValues></_>
        <_>
          <internalNodes>
            0 -1 135 -1.2431018054485321e-02</internalNodes>
          <leafValues>
            -5.2480697631835938e-01 1.8451668322086334e-01</leafValues></_>
        <_>
          <internalNodes>
            0 -1 113 -9.1154780238866806e-03</internalNodes>
          <leafValues>
            6.0783380270004272e-01 -1.5431708097457886e-01</leafValues></_>
        <_>
          <internalNodes>
            0 -1 97 1.1207384988665581e-02</internalNodes>
          <leafValues>
            1.9195060431957245e-01 -5.3017508983612061e-01</leafValues></_>
        <_>
          <internalNodes>
            0 -1 27 -7.1206308901309967e-02</internalNodes>
          <leafValues>
            -7.9903578758239746e-01 8.9062228798866272e-02</leafValues></_>
        <_>
          <internalNodes>
            0 -1 132 2.0235078409314156e-04</internalNodes>
          <leafValues>
            -2.0835655927658081e-01 4.8630005121231079e-01</leafValues></_>
        <_>
          <internalNodes>
            0 -1 89 -4.2339246720075607e-03</internalNodes>
          <leafValues>
            6.8506562709808350e-01 -1.1486708372831345e-01</leafValues></_>
        <_>
          <internalNodes>
            0 -1 91 1.4856848865747452e-03</internalNodes>
          <leafValues>
            -1.6750700771808624e-01 4.9642407894134521e-01</leafValues></_>
        <_>
          <internalNodes>
            0 -1 148 -3.7281853146851063e-03</internalNodes>
          <leafValues>
            6.9207966327667236e-01 -1.2634176015853882e-01</leafValues></_>
        <_>
          <internalNodes>
            0 -1 18 -4.6210916480049491e-04</internalNodes>
          <leafValues>
            6.3323098421096802e-01 -9.5392823219299316e-02</leafValues></_></weakClassifiers></_>
    <!-- stage 6 -->
    <_>
      <maxWeakCount>19</maxWeakCount>
      <stageThreshold>-9.1736787557601929e-01</stageThreshold>
      <weakClassifiers>
        <_>
          <internalNodes>
            0 -1 10 -9.9209435284137726e-03</internalNodes>
          <leafValues>
            -2.3206107318401337e-01 5.6551724672317505e-01</leafValues></_>
        <_>
          <internalNodes>
            0 -1 44 -5.9794709086418152e-02</internalNodes>
          <leafValues>
            7.3756170272827148e-01 -1.2106030434370041e-01</leafValues></_>
        <_>
          <internalNodes>
            0 -1 152 -3.5277020651847124e-03</internalNodes>
          <leafValues>
            -3.8934868574142456e-01 2.8439232707023621e-01</leafValues></_>
        <_>
          <internalNodes>
            0 -1 153 -3.6644204519689083e-03</internalNodes>
          <leafValues>
            -4.7518351674079895e-01 1.9660508632659912e-01</leafValues></_>
        <_>
          <internalNodes>
            0 -1 115 -6.5902019850909710e-03</internalNodes>
          <leafValues>
            7.3313766717910767e-01 -1.0918237268924713e-01</leafValues></_>
        <_>
          <internalNodes>
            0 -1 124 -1.6251608729362488e-02</internalNodes>
          <leafValues>
            7.6936006546020508e-01 -1.1424157023429871e-01</leafValues></_>
        <_>
          <internalNodes>
            0 -1 95 2.8638588264584541e-04</internalNodes>
          <leafValues>
            -1.2224180996417999e-01 5.7262158393859863e-01</leafValues></_>
        <_>
          <internalNodes>
            0 -1 95 -3.1606224365532398e-04</internalNodes>
          <leafValues>
            4.8670706152915955e-01 -1.7146329581737518e-01</leafValues></_>
        <_>
          <internalNodes>
            0 -1 3 -4.4138468801975250e-03</internalNodes>
          <leafValues>
            -4.4612583518028259e-01 1.8907831609249115e-01</leafValues></_>
        <_>
          <internalNodes>
            0 -1 13 6.0185310430824757e-03</internalNodes>
          <leafValues>
            1.6840507090091705e-01 -5.3345316648483276e-01</leafValues></_>
        <_>
          <internalNodes>
            0 -1 46 -1.0876292362809181e-03</internalNodes>
          <leafValues>
            5.7864171266555786e-01 -1.6715091466903687e-01</leafValues></_>
        <_>
          <internalNodes>
            0 -1 20 -2.2868223488330841e-02</internalNodes>
          <leafValues>
            -3.7484699487686157e-01 2.4377381801605225e-01</leafValues></_>
        <_>
          <internalNodes>
            0 -1 49 3.2788809039629996e-04</internalNodes>
          <leafValues>
            -1.7906248569488525e-01 5.1395356655120850e-01</leafValues></_>
        <_>
          <internalNodes>
            0 -1 93 7.1309279883280396e-04</internalNodes>
          <leafValues>
            -1.6840724647045135e-01 4.9007284641265869e-01</leafValues></_>
        <_>
          <internalNodes>
            0 -1 101 -7.8043765388429165e-03</internalNodes>
          <leafValues>
            8.2244580984115601e-01 -9.0469539165496826e-02</leafValues></_>
        <_>
          <internalNodes>
            0 -1 110 5.3014419972896576e-04</internalNodes>
          <leafValues>
            -1.7151436209678650e-01 4.6544262766838074e-01</leafValues></_>
        <_>
          <internalNodes>
            0 -1 136 8.3257234655320644e-04</internalNodes>
          <leafValues>
            -1.3153730332851410e-01 5.7905203104019165e-01</leafValues></_>
        <_>
          <internalNodes>
            0 -1 42 -1.7550473567098379e-03</internalNodes>
          <leafValues>
            -3.7708282470703125e-01 2.1779853105545044e-01</leafValues></_>
        <_>
          <internalNodes>
            0 -1 26 -2.5752991437911987e-02</internalNodes>
          <leafValues>
            -7.5343990325927734e-01 1.2115866690874100e-01</leafValues></_></weakClassifiers></_>
    <!-- stage 7 -->
    <_>
      <maxWeakCount>21</maxWeakCount>
      <stageThreshold>-9.4050967693328857e-01</stageThreshold>
      <weakClassifiers>
        <_>
          <internalNodes>
            0 -1 51 -1.1018420755863190e-01</internalNodes>
          <leafValues>
            8.3783781528472900e-01 1.5319661796092987e-01</leafValues></_>
        <_>
          <internalNodes>
            0 -1 79 2.0566214807331562e-03</internalNodes>
          <leafValues>
            -2.9603958129882812e-01 3.0768463015556335e-01</leafValues></_>
        <_>
          <internalNodes>
            0 -1 98 2.0060995593667030e-02</internalNodes>
          <leafValues>
            -1.1515446007251740e-01 7.4275326728820801e-01</leafValues></_>
        <_>
          <internalNodes>
            0 -1 106 -1.0217672213912010e-02</internalNodes>
          <leafValues>
            7.8183966875076294e-01 -1.3192774355411530e-01</leafValues></_>
        <_>
          <internalNodes>
            0 -1 100 -4.1991956532001495e-02</internalNodes>
          <leafValues>
            6.4745771884918213e-01 -1.0644169151782990e-01</leafValues></_>
        <_>
          <internalNodes>
            0 -1 48 3.1465053325518966e-04</internalNodes>
          <leafValues>
            -1.2183981388807297e-01 6.1309808492660522e-01</leafValues></_>
        <_>
          <internalNodes>
            0 -1 53 -2.7978036087006330e-04</internalNodes>
          <leafValues>
            5.9696269035339355e-01 -1.1565589159727097e-01</leafValues></_>
        <_>
          <internalNodes>
            0 -1 147 -2.8154994361102581e-03</internalNodes>
          <leafValues>
            7.0239502191543579e-01 -9.1133609414100647e-02</leafValues></_>
        <_>
          <internalNodes>
            0 -1 77 -2.4551453534513712e-03</internalNodes>
          <leafValues>
            7.3398870229721069e-01 -8.3532243967056274e-02</leafValues></_>
        <_>
          <internalNodes>
            0 -1 34 2.1477276459336281e-03</internalNodes>
          <leafValues>
            -3.2009223103523254e-01 2.8211683034896851e-01</leafValues></_>
        <_>
          <internalNodes>
            0 -1 58 -1.6971606761217117e-02</internalNodes>
          <leafValues>
            8.8477021455764771e-01 -8.3779029548168182e-02</leafValues></_>
        <_>
          <internalNodes>
            0 -1 38 -1.0357715189456940e-02</internalNodes>
          <leafValues>
            -3.8245752453804016e-01 2.2063878178596497e-01</leafValues></_>
        <_>
          <internalNodes>
            0 -1 31 -1.1320979101583362e-03</internalNodes>
          <leafValues>
            7.2697001695632935e-01 -1.1235894262790680e-01</leafValues></_>
        <_>
          <internalNodes>
            0 -1 141 -3.8192875217646360e-03</internalNodes>
          <leafValues>
            7.0277178287506104e-01 -8.3474852144718170e-02</leafValues></_>
        <_>
          <internalNodes>
            0 -1 37 1.2374448124319315e-04</internalNodes>
          <leafValues>
            -1.1558572947978973e-01 5.5285441875457764e-01</leafValues></_>
        <_>
          <internalNodes>
            0 -1 7 -5.1345769315958023e-03</internalNodes>
          <leafValues>
            3.2120209932327271e-01 -2.2568045556545258e-01</leafValues></_>
        <_>
          <internalNodes>
            0 -1 16 -2.7369663584977388e-03</internalNodes>
          <leafValues>
            -3.2642090320587158e-01 2.3474040627479553e-01</leafValues></_>
        <_>
          <internalNodes>
            0 -1 41 3.1656771898269653e-04</internalNodes>
          <leafValues>
            -1.3662454485893250e-01 5.1972609758377075e-01</leafValues></_>
        <_>
          <internalNodes>
            0 -1 15 -3.3249039202928543e-02</internalNodes>
          <leafValues>
            -6.3463085889816284e-01 1.2539279460906982e-01</leafValues></_>
        <_>
          <internalNodes>
            0 -1 62 -2.5712087750434875e-02</internalNodes>
          <leafValues>
            6.4834523200988770e-01 -1.2666754424571991e-01</leafValues></_>
        <_>
          <internalNodes>
            0 -1 107 2.3808286641724408e-04</internalNodes>
          <leafValues>
            -1.3480676710605621e-01 4.7985678911209106e-01</leafValues></_></weakClassifiers></_>
    <!-- stage 8 -->
    <_>
      <maxWeakCount>20</maxWeakCount>
      <stageThreshold>-9.3048703670501709e-01</stageThreshold>
      <weakClassifiers>
        <_>
          <internalNodes>
            0 -1 60 4.1466698050498962e-02</internalNodes>
          <leafValues>
            -6.2807209789752960e-02 6.0509556531906128e-01</leafValues></_>
        <_>
          <internalNodes>
            0 -1 138 -4.4198548421263695e-03</internalNodes>
          <leafValues>
            -5.0158637762069702e-01 1.8759873509407043e-01</leafValues></_>
        <_>
          <internalNodes>
            0 -1 86 -2.1838210523128510e-02</internalNodes>
          <leafValues>
            8.7252092361450195e-01 -9.6912741661071777e-02</leafValues></_>
        <_>
          <internalNodes>
            0 -1 90 8.6750071495771408e-03</internalNodes>
          <leafValues>
            -1.3758501410484314e-01 7.4162948131561279e-01</leafValues></_>
        <_>
          <internalNodes>
            0 -1 50 -1.1435210704803467e-01</internalNodes>
          <leafValues>
            6.4921987056732178e-01 -9.8365254700183868e-02</leafValues></_>
        <_>
          <internalNodes>
            0 -1 112 -1.0665243491530418e-02</internalNodes>
          <leafValues>
            4.4434368610382080e-01 -1.8579156696796417e-01</leafValues></_>
        <_>
          <internalNodes>
            0 -1 134 -4.7864103689789772e-03</internalNodes>
          <leafValues>
            -5.4539239406585693e-01 1.6304716467857361e-01</leafValues></_>
        <_>
          <internalNodes>
            0 -1 14 -5.2350156009197235e-02</internalNodes>
          <leafValues>
            7.6977282762527466e-01 -1.2692677974700928e-01</leafValues></_>
        <_>
          <internalNodes>
            0 -1 39 -6.0146488249301910e-02</internalNodes>
          <leafValues>
            5.5001252889633179e-01 -1.3265866041183472e-01</leafValues></_>
        <_>
          <internalNodes>
            0 -1 19 -2.4375326931476593e-02</internalNodes>
          <leafValues>
            -2.5401875376701355e-01 3.8278228044509888e-01</leafValues></_>
        <_>
          <internalNodes>
            0 -1 43 8.8664349168539047e-03</internalNodes>
          <leafValues>
            1.4417617022991180e-01 -5.2787494659423828e-01</leafValues></_>
        <_>
          <internalNodes>
            0 -1 122 -1.6825168859213591e-03</internalNodes>
          <leafValues>
            6.3418287038803101e-01 -1.2065859138965607e-01</leafValues></_>
        <_>
          <internalNodes>
            0 -1 128 -8.6476765573024750e-03</internalNodes>
          <leafValues>
            7.6612710952758789e-01 -8.8078454136848450e-02</leafValues></_>
        <_>
          <internalNodes>
            0 -1 119 -3.7653572857379913e-02</internalNodes>
          <leafValues>
            6.0962712764739990e-01 -9.8024450242519379e-02</leafValues></_>
        <_>
          <internalNodes>
            0 -1 146 -8.4772091358900070e-03</internalNodes>
          <leafValues>
            7.5926780700683594e-01 -8.1984505057334900e-02</leafValues></_>
        <_>
          <internalNodes>
            0 -1 78 6.6444330150261521e-04</internalNodes>
          <leafValues>
            -1.6856664419174194e-01 4.3478360772132874e-01</leafValues></_>
        <_>
          <internalNodes>
            0 -1 23 -5.0259851850569248e-03</internalNodes>
          <leafValues>
            5.9754693508148193e-01 -8.7184920907020569e-02</leafValues></_>
        <_>
          <internalNodes>
            0 -1 2 -1.0712441056966782e-02</internalNodes>
          <leafValues>
            -6.3541233539581299e-01 1.2086322903633118e-01</leafValues></_>
        <_>
          <internalNodes>
            0 -1 22 -1.1114709079265594e-02</internalNodes>
          <leafValues>
            -3.6171209812164307e-01 1.5462535619735718e-01</leafValues></_>
        <_>
          <internalNodes>
            0 -1 150 -4.7773788683116436e-03</internalNodes>
          <leafValues>
            6.0827535390853882e-01 -1.0828749090433121e-01</leafValues></_></weakClassifiers></_>
    <!-- stage 9 -->
    <_>
      <maxWeakCount>11</maxWeakCount>
      <stageThreshold>-1.2145160436630249e+00</stageThreshold>
      <weakClassifiers>
        <_>
          <internalNodes>
            0 -1 83 5.7371132075786591e-02</internalNodes>
          <leafValues>
            -5.3452115505933762e-02 9.1029900312423706e-01</leafValues></_>
        <_>
          <internalNodes>
            0 -1 47 5.2674360573291779e-02</internalNodes>
          <leafValues>
            -9.8066009581089020e-02 9.4415187835693359e-01</leafValues></_>
        <_>
          <internalNodes>
            0 -1 59 -6.2547311186790466e-02</internalNodes>
          <leafValues>
            7.6705509424209595e-01 -2.0791386067867279e-01</leafValues></_>
        <_>
          <internalNodes>
            0 -1 32 7.0918738842010498e-02</internalNodes>
          <leafValues>
            -1.9478051364421844e-01 7.3654562234878540e-01</leafValues></_>
        <_>
          <internalNodes>
            0 -1 116 3.6553435027599335e-02</internalNodes>
          <leafValues>
            -1.6429765522480011e-01 8.7941706180572510e-01</leafValues></_>
        <_>
          <internalNodes>
            0 -1 144 -2.1269570570439100e-03</internalNodes>
          <leafValues>
            -7.5645422935485840e-01 2.0980361104011536e-01</leafValues></_>
        <_>
          <internalNodes>
            0 -1 109 -3.2072041183710098e-02</internalNodes>
          <leafValues>
            6.3488972187042236e-01 -2.4573643505573273e-01</leafValues></_>
        <_>
          <internalNodes>
            0 -1 142 1.5753210755065084e-03</internalNodes>
          <leafValues>
            2.5363573431968689e-01 -6.5009742975234985e-01</leafValues></_>
        <_>
          <internalNodes>
            0 -1 127 2.8074118308722973e-03</internalNodes>
          <leafValues>
            1.3339714705944061e-01 -7.7243947982788086e-01</leafValues></_>
        <_>
          <internalNodes>
            0 -1 40 -2.9802820645272732e-03</internalNodes>
          <leafValues>
            -6.7432326078414917e-01 1.9463238120079041e-01</leafValues></_>
        <_>
          <internalNodes>
            0 -1 55 -6.0251086950302124e-02</internalNodes>
          <leafValues>
            8.2142853736877441e-01 -1.7278271913528442e-01</leafValues></_></weakClassifiers></_></stages>
  <features>
    <_>
      <rects>
        <_>
          0 0 5 12 -1.</_>
        <_>
          0 6 5 6 2.</_></rects>
      <tilted>0</tilted></_>
    <_>
      <rects>
        <_>
          0 0 15 50 -1.</_>
        <_>
          0 25 15 25 2.</_></rects>
      <tilted>0</tilted></_>
    <_>
      <rects>
        <_>
          0 0 36 3 -1.</_>
        <_>
          18 0 18 3 2.</_></rects>
      <tilted>0</tilted></_>
    <_>
      <rects>
        <_>
          0 0 41 4 -1.</_>
        <_>
          0 2 41 2 2.</_></rects>
      <tilted>0</tilted></_>
    <_>
      <rects>
        <_>
          0 0 50 50 -1.</_>
        <_>
          0 25 50 25 2.</_></rects>
      <tilted>0</tilted></_>
    <_>
      <rects>
        <_>
          0 1 28 5 -1.</_>
        <_>
          14 1 14 5 2.</_></rects>
      <tilted>0</tilted></_>
    <_>
      <rects>
        <_>
          0 5 24 45 -1.</_>
        <_>
          8 5 8 45 3.</_></rects>
      <tilted>0</tilted></_>
    <_>
      <rects>
        <_>
          0 18 12 28 -1.</_>
        <_>
          6 18 6 28 2.</_></rects>
      <tilted>0</tilted></_>
    <_>
      <rects>
        <_>
          0 21 7 28 -1.</_>
        <_>
          0 35 7 14 2.</_></rects>
      <tilted>0</tilted></_>
    <_>
      <rects>
        <_>
          0 28 31 20 -1.</_>
        <_>
          0 38 31 10 2.</_></rects>
      <tilted>0</tilted></_>
    <_>
      <rects>
        <_>
          0 30 27 20 -1.</_>
        <_>
          0 40 27 10 2.</_></rects>
      <tilted>0</tilted></_>
    <_>
      <rects>
        <_>
          0 36 44 14 -1.</_>
        <_>
          22 36 22 14 2.</_></rects>
      <tilted>0</tilted></_>
    <_>
      <rects>
        <_>
          0 40 50 10 -1.</_>
        <_>
          0 45 50 5 2.</_></rects>
      <tilted>0</tilted></_>
    <_>
      <rects>
        <_>
          0 43 12 7 -1.</_>
        <_>
          6 43 6 7 2.</_></rects>
      <tilted>0</tilted></_>
    <_>
      <rects>
        <_>
          1 14 21 17 -1.</_>
        <_>
          8 14 7 17 3.</_></rects>
      <tilted>0</tilted></_>
    <_>
      <rects>
        <_>
          2 0 36 10 -1.</_>
        <_>
          20 0 18 10 2.</_></rects>
      <tilted>0</tilted></_>
    <_>
      <rects>
        <_>
          2 0 34 6 -1.</_>
        <_>
          2 3 34 3 2.</_></rects>
      <tilted>0</tilted></_>
    <_>
      <rects>
        <_>
          2 10 18 30 -1.</_>
        <_>
          8 10 6 30 3.</_></rects>
      <tilted>0</tilted></_>
    <_>
      <rects>
        <_>
          2 28 3 6 -1.</_>
        <_>
          3 28 1 6 3.</_></rects>
      <tilted>0</tilted></_>
    <_>
      <rects>
        <_>
          3 10 47 40 -1.</_>
        <_>
          3 30 47 20 2.</_></rects>
      <tilted>0</tilted></_>
    <_>
      <rects>
        <_>
          3 15 17 34 -1.</_>
        <_>
          3 32 17 17 2.</_></rects>
      <tilted>0</tilted></_>
    <_>
      <rects>
        <_>
          3 16 24 12 -1.</_>
        <_>
          11 16 8 12 3.</_></rects>
      <tilted>0</tilted></_>
    <_>
      <rects>
        <_>
          3 38 37 12 -1.</_>
        <_>
          3 44 37 6 2.</_></rects>
      <tilted>0</tilted></_>
    <_>
      <rects>
        <_>
          4 10 6 27 -1.</_>
        <_>
          6 10 2 27 3.</_></rects>
      <tilted>0</tilted></_>
    <_>
      <rects>
        <_>
          4 31 6 1 -1.</_>
        <_>
          6 31 2 1 3.</_></rects>
      <tilted>0</tilted></_>
    <_>
      <rects>
        <_>
          5 10 30 27 -1.</_>
        <_>
          15 10 10 27 3.</_></rects>
      <tilted>0</tilted></_>
    <_>
      <rects>
        <_>
          5 47 38 3 -1.</_>
        <_>
          24 47 19 3 2.</_></rects>
      <tilted>0</tilted></_>
    <_>
      <rects>
        <_>
          6 0 44 18 -1.</_>
        <_>
          28 0 22 18 2.</_></rects>
      <tilted>0</tilted></_>
    <_>
      <rects>
        <_>
          6 18 24 8 -1.</_>
        <_>
          14 18 8 8 3.</_></rects>
      <tilted>0</tilted></_>
    <_>
      <rects>
        <_>
          6 18 30 19 -1.</_>
        <_>
          16 18 10 19 3.</_></rects>
      <tilted>0</tilted></_>
    <_>
      <rects>
        <_>
          7 24 1 3 -1.</_>
        <_>
          7 25 1 1 3.</_></rects>
      <tilted>0</tilted></_>
    <_>
      <rects>
        <_>
          7 29 3 13 -1.</_>
        <_>
          8 29 1 13 3.</_></rects>
      <tilted>0</tilted></_>
    <_>
      <rects>
        <_>
          8 6 39 30 -1.</_>
        <_>
          21 6 13 30 3.</_></rects>
      <tilted>0</tilted></_>
    <_>
      <rects>
        <_>
          8 9 32 23 -1.</_>
        <_>
          24 9 16 23 2.</_></rects>
      <tilted>0</tilted></_>
    <_>
      <rects>
        <_>
          8 14 7 36 -1.</_>
        <_>
          8 32 7 18 2.</_></rects>
      <tilted>0</tilted></_>
    <_>
      <rects>
        <_>
          8 18 27 20 -1.</_>
        <_>
          17 18 9 20 3.</_></rects>
      <tilted>0</tilted></_>
    <_>
      <rects>
        <_>
          8 28 42 22 -1.</_>
        <_>
          8 39 42 11 2.</_></rects>
      <tilted>0</tilted></_>
    <_>
      <rects>
        <_>
          8 29 1 3 -1.</_>
        <_>
          8 30 1 1 3.</_></rects>
      <tilted>0</tilted></_>
    <_>
      <rects>
        <_>
          8 46 42 4 -1.</_>
        <_>
          29 46 21 4 2.</_></rects>
      <tilted>0</tilted></_>
    <_>
      <rects>
        <_>
          9 0 21 41 -1.</_>
        <_>
          16 0 7 41 3.</_></rects>
      <tilted>0</tilted></_>
    <_>
      <rects>
        <_>
          9 1 38 3 -1.</_>
        <_>
          9 2 38 1 3.</_></rects>
      <tilted>0</tilted></_>
    <_>
      <rects>
        <_>
          9 13 6 3 -1.</_>
        <_>
          9 14 6 1 3.</_></rects>
      <tilted>0</tilted></_>
    <_>
      <rects>
        <_>
          9 40 4 10 -1.</_>
        <_>
          9 45 4 5 2.</_></rects>
      <tilted>0</tilted></_>
    <_>
      <rects>
        <_>
          10 0 40 3 -1.</_>
        <_>
          30 0 20 3 2.</_></rects>
      <tilted>0</tilted></_>
    <_>
      <rects>
        <_>
          10 7 21 24 -1.</_>
        <_>
          17 7 7 24 3.</_></rects>
      <tilted>0</tilted></_>
    <_>
      <rects>
        <_>
          10 9 15 24 -1.</_>
        <_>
          15 9 5 24 3.</_></rects>
      <tilted>0</tilted></_>
    <_>
      <rects>
        <_>
          10 13 3 25 -1.</_>
        <_>
          11 13 1 25 3.</_></rects>
      <tilted>0</tilted></_>
    <_>
      <rects>
        <_>
          10 15 24 13 -1.</_>
        <_>
          22 15 12 13 2.</_></rects>
      <tilted>0</tilted></_>
    <_>
      <rects>
        <_>
          10 18 3 3 -1.</_>
        <_>
          10 19 3 1 3.</_></rects>
      <tilted>0</tilted></_>
    <_>
      <rects>
        <_>
          10 25 3 7 -1.</_>
        <_>
          11 25 1 7 3.</_></rects>
      <tilted>0</tilted></_>
    <_>
      <rects>
        <_>
          11 9 33 34 -1.</_>
        <_>
          22 9 11 34 3.</_></rects>
      <tilted>0</tilted></_>
    <_>
      <rects>
        <_>
          11 10 24 40 -1.</_>
        <_>
          19 10 8 40 3.</_></rects>
      <tilted>0</tilted></_>
    <_>
      <rects>
        <_>
          11 17 24 20 -1.</_>
        <_>
          19 17 8 20 3.</_></rects>
      <tilted>0</tilted></_>
    <_>
      <rects>
        <_>
          11 18 2 3 -1.</_>
        <_>
          11 19 2 1 3.</_></rects>
      <tilted>0</tilted></_>
    <_>
      <rects>
        <_>
          11 30 27 2 -1.</_>
        <_>
          20 30 9 2 3.</_></rects>
      <tilted>0</tilted></_>
    <_>
      <rects>
        <_>
          12 6 18 37 -1.</_>
        <_>
          18 6 6 37 3.</_></rects>
      <tilted>0</tilted></_>
    <_>
      <rects>
        <_>
          12 7 15 27 -1.</_>
        <_>
          17 7 5 27 3.</_></rects>
      <tilted>0</tilted></_>
    <_>
      <rects>
        <_>
          12 7 18 35 -1.</_>
        <_>
          18 7 6 35 3.</_></rects>
      <tilted>0</tilted></_>
    <_>
      <rects>
        <_>
          12 10 9 18 -1.</_>
        <_>
          15 10 3 18 3.</_></rects>
      <tilted>0</tilted></_>
    <_>
      <rects>
        <_>
          12 10 30 27 -1.</_>
        <_>
          22 10 10 27 3.</_></rects>
      <tilted>0</tilted></_>
    <_>
      <rects>
        <_>
          12 10 28 28 -1.</_>
        <_>
          26 10 14 28 2.</_></rects>
      <tilted>0</tilted></_>
    <_>
      <rects>
        <_>
          12 17 3 10 -1.</_>
        <_>
          13 17 1 10 3.</_></rects>
      <tilted>0</tilted></_>
    <_>
      <rects>
        <_>
          12 18 21 5 -1.</_>
        <_>
          19 18 7 5 3.</_></rects>
      <tilted>0</tilted></_>
    <_>
      <rects>
        <_>
          12 19 15 1 -1.</_>
        <_>
          17 19 5 1 3.</_></rects>
      <tilted>0</tilted></_>
    <_>
      <rects>
        <_>
          13 4 27 30 -1.</_>
        <_>
          22 4 9 30 3.</_></rects>
      <tilted>0</tilted></_>
    <_>
      <rects>
        <_>
          13 16 18 19 -1.</_>
        <_>
          19 16 6 19 3.</_></rects>
      <tilted>0</tilted></_>
    <_>
      <rects>
        <_>
          13 18 18 6 -1.</_>
        <_>
          22 18 9 6 2.</_></rects>
      <tilted>0</tilted></_>
    <_>
      <rects>
        <_>
          13 20 2 4 -1.</_>
        <_>
          13 20 1 2 2.</_>
        <_>
          14 22 1 2 2.</_></rects>
      <tilted>0</tilted></_>
    <_>
      <rects>
        <_>
          13 28 35 22 -1.</_>
        <_>
          13 39 35 11 2.</_></rects>
      <tilted>0</tilted></_>
    <_>
      <rects>
        <_>
          14 10 6 19 -1.</_>
        <_>
          16 10 2 19 3.</_></rects>
      <tilted>0</tilted></_>
    <_>
      <rects>
        <_>
          14 12 9 14 -1.</_>
        <_>
          17 12 3 14 3.</_></rects>
      <tilted>0</tilted></_>
    <_>
      <rects>
        <_>
          14 14 21 27 -1.</_>
        <_>
          21 14 7 27 3.</_></rects>
      <tilted>0</tilted></_>
    <_>
      <rects>
        <_>
          14 19 24 18 -1.</_>
        <_>
          22 19 8 18 3.</_></rects>
      <tilted>0</tilted></_>
    <_>
      <rects>
        <_>
          14 22 2 3 -1.</_>
        <_>
          14 23 2 1 3.</_></rects>
      <tilted>0</tilted></_>
    <_>
      <rects>
        <_>
          15 9 12 26 -1.</_>
        <_>
          19 9 4 26 3.</_></rects>
      <tilted>0</tilted></_>
    <_>
      <rects>
        <_>
          15 10 4 22 -1.</_>
        <_>
          17 10 2 22 2.</_></rects>
      <tilted>0</tilted></_>
    <_>
      <rects>
        <_>
          15 15 3 11 -1.</_>
        <_>
          16 15 1 11 3.</_></rects>
      <tilted>0</tilted></_>
    <_>
      <rects>
        <_>
          15 15 12 1 -1.</_>
        <_>
          19 15 4 1 3.</_></rects>
      <tilted>0</tilted></_>
    <_>
      <rects>
        <_>
          15 18 6 4 -1.</_>
        <_>
          17 18 2 4 3.</_></rects>
      <tilted>0</tilted></_>
    <_>
      <rects>
        <_>
          15 28 35 22 -1.</_>
        <_>
          15 39 35 11 2.</_></rects>
      <tilted>0</tilted></_>
    <_>
      <rects>
        <_>
          16 5 15 29 -1.</_>
        <_>
          21 5 5 29 3.</_></rects>
      <tilted>0</tilted></_>
    <_>
      <rects>
        <_>
          16 7 18 34 -1.</_>
        <_>
          22 7 6 34 3.</_></rects>
      <tilted>0</tilted></_>
    <_>
      <rects>
        <_>
          16 8 6 20 -1.</_>
        <_>
          19 8 3 20 2.</_></rects>
      <tilted>0</tilted></_>
    <_>
      <rects>
        <_>
          16 16 22 24 -1.</_>
        <_>
          27 16 11 24 2.</_></rects>
      <tilted>0</tilted></_>
    <_>
      <rects>
        <_>
          16 33 3 3 -1.</_>
        <_>
          16 34 3 1 3.</_></rects>
      <tilted>0</tilted></_>
    <_>
      <rects>
        <_>
          17 1 12 28 -1.</_>
        <_>
          21 1 4 28 3.</_></rects>
      <tilted>0</tilted></_>
    <_>
      <rects>
        <_>
          17 11 12 10 -1.</_>
        <_>
          21 11 4 10 3.</_></rects>
      <tilted>0</tilted></_>
    <_>
      <rects>
        <_>
          17 11 18 23 -1.</_>
        <_>
          23 11 6 23 3.</_></rects>
      <tilted>0</tilted></_>
    <_>
      <rects>
        <_>
          17 18 12 18 -1.</_>
        <_>
          21 18 4 18 3.</_></rects>
      <tilted>0</tilted></_>
    <_>
      <rects>
        <_>
          18 6 6 16 -1.</_>
        <_>
          20 6 2 16 3.</_></rects>
      <tilted>0</tilted></_>
    <_>
      <rects>
        <_>
          18 6 4 22 -1.</_>
        <_>
          20 6 2 22 2.</_></rects>
      <tilted>0</tilted></_>
    <_>
      <rects>
        <_>
          18 7 6 16 -1.</_>
        <_>
          20 7 2 16 3.</_></rects>
      <tilted>0</tilted></_>
    <_>
      <rects>
        <_>
          18 10 6 30 -1.</_>
        <_>
          20 10 2 30 3.</_></rects>
      <tilted>0</tilted></_>
    <_>
      <rects>
        <_>
          18 15 3 6 -1.</_>
        <_>
          18 17 3 2 3.</_></rects>
      <tilted>0</tilted></_>
    <_>
      <rects>
        <_>
          18 19 18 22 -1.</_>
        <_>
          27 19 9 22 2.</_></rects>
      <tilted>0</tilted></_>
    <_>
      <rects>
        <_>
          18 30 3 3 -1.</_>
        <_>
          18 31 3 1 3.</_></rects>
      <tilted>0</tilted></_>
    <_>
      <rects>
        <_>
          18 30 19 18 -1.</_>
        <_>
          18 39 19 9 2.</_></rects>
      <tilted>0</tilted></_>
    <_>
      <rects>
        <_>
          19 0 28 6 -1.</_>
        <_>
          33 0 14 6 2.</_></rects>
      <tilted>0</tilted></_>
    <_>
      <rects>
        <_>
          19 4 6 29 -1.</_>
        <_>
          22 4 3 29 2.</_></rects>
      <tilted>0</tilted></_>
    <_>
      <rects>
        <_>
          19 18 3 6 -1.</_>
        <_>
          19 20 3 2 3.</_></rects>
      <tilted>0</tilted></_>
    <_>
      <rects>
        <_>
          20 5 15 36 -1.</_>
        <_>
          25 5 5 36 3.</_></rects>
      <tilted>0</tilted></_>
    <_>
      <rects>
        <_>
          20 14 6 28 -1.</_>
        <_>
          22 14 2 28 3.</_></rects>
      <tilted>0</tilted></_>
    <_>
      <rects>
        <_>
          20 17 24 20 -1.</_>
        <_>
          28 17 8 20 3.</_></rects>
      <tilted>0</tilted></_>
    <_>
      <rects>
        <_>
          20 18 21 25 -1.</_>
        <_>
          27 18 7 25 3.</_></rects>
      <tilted>0</tilted></_>
    <_>
      <rects>
        <_>
          20 21 15 13 -1.</_>
        <_>
          25 21 5 13 3.</_></rects>
      <tilted>0</tilted></_>
    <_>
      <rects>
        <_>
          20 31 3 3 -1.</_>
        <_>
          20 32 3 1 3.</_></rects>
      <tilted>0</tilted></_>
    <_>
      <rects>
        <_>
          21 0 6 42 -1.</_>
        <_>
          23 0 2 42 3.</_></rects>
      <tilted>0</tilted></_>
    <_>
      <rects>
        <_>
          21 13 4 3 -1.</_>
        <_>
          21 14 4 1 3.</_></rects>
      <tilted>0</tilted></_>
    <_>
      <rects>
        <_>
          21 18 12 18 -1.</_>
        <_>
          25 18 4 18 3.</_></rects>
      <tilted>0</tilted></_>
    <_>
      <rects>
        <_>
          21 18 24 15 -1.</_>
        <_>
          29 18 8 15 3.</_></rects>
      <tilted>0</tilted></_>
    <_>
      <rects>
        <_>
          21 19 3 12 -1.</_>
        <_>
          22 19 1 12 3.</_></rects>
      <tilted>0</tilted></_>
    <_>
      <rects>
        <_>
          21 21 18 6 -1.</_>
        <_>
          27 21 6 6 3.</_></rects>
      <tilted>0</tilted></_>
    <_>
      <rects>
        <_>
          22 15 2 30 -1.</_>
        <_>
          22 25 2 10 3.</_></rects>
      <tilted>0</tilted></_>
    <_>
      <rects>
        <_>
          22 22 12 6 -1.</_>
        <_>
          26 22 4 6 3.</_></rects>
      <tilted>0</tilted></_>
    <_>
      <rects>
        <_>
          22 22 18 6 -1.</_>
        <_>
          28 22 6 6 3.</_></rects>
      <tilted>0</tilted></_>
    <_>
      <rects>
        <_>
          23 17 6 23 -1.</_>
        <_>
          25 17 2 23 3.</_></rects>
      <tilted>0</tilted></_>
    <_>
      <rects>
        <_>
          23 21 14 18 -1.</_>
        <_>
          30 21 7 18 2.</_></rects>
      <tilted>0</tilted></_>
    <_>
      <rects>
        <_>
          24 18 3 4 -1.</_>
        <_>
          25 18 1 4 3.</_></rects>
      <tilted>0</tilted></_>
    <_>
      <rects>
        <_>
          24 18 3 5 -1.</_>
        <_>
          25 18 1 5 3.</_></rects>
      <tilted>0</tilted></_>
    <_>
      <rects>
        <_>
          24 18 21 16 -1.</_>
        <_>
          31 18 7 16 3.</_></rects>
      <tilted>0</tilted></_>
    <_>
      <rects>
        <_>
          24 30 17 14 -1.</_>
        <_>
          24 37 17 7 2.</_></rects>
      <tilted>0</tilted></_>
    <_>
      <rects>
        <_>
          24 34 26 16 -1.</_>
        <_>
          24 42 26 8 2.</_></rects>
      <tilted>0</tilted></_>
    <_>
      <rects>
        <_>
          25 15 3 22 -1.</_>
        <_>
          26 15 1 22 3.</_></rects>
      <tilted>0</tilted></_>
    <_>
      <rects>
        <_>
          25 15 6 35 -1.</_>
        <_>
          27 15 2 35 3.</_></rects>
      <tilted>0</tilted></_>
    <_>
      <rects>
        <_>
          25 16 9 22 -1.</_>
        <_>
          28 16 3 22 3.</_></rects>
      <tilted>0</tilted></_>
    <_>
      <rects>
        <_>
          25 21 18 6 -1.</_>
        <_>
          31 21 6 6 3.</_></rects>
      <tilted>0</tilted></_>
    <_>
      <rects>
        <_>
          25 42 23 8 -1.</_>
        <_>
          25 46 23 4 2.</_></rects>
      <tilted>0</tilted></_>
    <_>
      <rects>
        <_>
          26 1 24 3 -1.</_>
        <_>
          26 2 24 1 3.</_></rects>
      <tilted>0</tilted></_>
    <_>
      <rects>
        <_>
          26 12 6 23 -1.</_>
        <_>
          28 12 2 23 3.</_></rects>
      <tilted>0</tilted></_>
    <_>
      <rects>
        <_>
          26 18 9 15 -1.</_>
        <_>
          29 18 3 15 3.</_></rects>
      <tilted>0</tilted></_>
    <_>
      <rects>
        <_>
          26 18 21 23 -1.</_>
        <_>
          33 18 7 23 3.</_></rects>
      <tilted>0</tilted></_>
    <_>
      <rects>
        <_>
          26 26 2 6 -1.</_>
        <_>
          26 26 1 3 2.</_>
        <_>
          27 29 1 3 2.</_></rects>
      <tilted>0</tilted></_>
    <_>
      <rects>
        <_>
          26 29 3 3 -1.</_>
        <_>
          26 30 3 1 3.</_></rects>
      <tilted>0</tilted></_>
    <_>
      <rects>
        <_>
          26 31 2 3 -1.</_>
        <_>
          26 32 2 1 3.</_></rects>
      <tilted>0</tilted></_>
    <_>
      <rects>
        <_>
          27 0 18 6 -1.</_>
        <_>
          33 0 6 6 3.</_></rects>
      <tilted>0</tilted></_>
    <_>
      <rects>
        <_>
          28 0 22 10 -1.</_>
        <_>
          39 0 11 10 2.</_></rects>
      <tilted>0</tilted></_>
    <_>
      <rects>
        <_>
          28 23 3 11 -1.</_>
        <_>
          29 23 1 11 3.</_></rects>
      <tilted>0</tilted></_>
    <_>
      <rects>
        <_>
          28 28 1 3 -1.</_>
        <_>
          28 29 1 1 3.</_></rects>
      <tilted>0</tilted></_>
    <_>
      <rects>
        <_>
          30 2 20 3 -1.</_>
        <_>
          40 2 10 3 2.</_></rects>
      <tilted>0</tilted></_>
    <_>
      <rects>
        <_>
          30 11 18 34 -1.</_>
        <_>
          36 11 6 34 3.</_></rects>
      <tilted>0</tilted></_>
    <_>
      <rects>
        <_>
          30 15 15 23 -1.</_>
        <_>
          35 15 5 23 3.</_></rects>
      <tilted>0</tilted></_>
    <_>
      <rects>
        <_>
          31 23 6 12 -1.</_>
        <_>
          33 23 2 12 3.</_></rects>
      <tilted>0</tilted></_>
    <_>
      <rects>
        <_>
          32 8 14 3 -1.</_>
        <_>
          32 9 14 1 3.</_></rects>
      <tilted>0</tilted></_>
    <_>
      <rects>
        <_>
          33 16 15 25 -1.</_>
        <_>
          38 16 5 25 3.</_></rects>
      <tilted>0</tilted></_>
    <_>
      <rects>
        <_>
          34 8 15 3 -1.</_>
        <_>
          34 9 15 1 3.</_></rects>
      <tilted>0</tilted></_>
    <_>
      <rects>
        <_>
          34 15 15 32 -1.</_>
        <_>
          39 15 5 32 3.</_></rects>
      <tilted>0</tilted></_>
    <_>
      <rects>
        <_>
          35 20 9 9 -1.</_>
        <_>
          38 20 3 9 3.</_></rects>
      <tilted>0</tilted></_>
    <_>
      <rects>
        <_>
          35 24 6 6 -1.</_>
        <_>
          37 24 2 6 3.</_></rects>
      <tilted>0</tilted></_>
    <_>
      <rects>
        <_>
          39 24 6 12 -1.</_>
        <_>
          41 24 2 12 3.</_></rects>
      <tilted>0</tilted></_>
    <_>
      <rects>
        <_>
          40 0 10 48 -1.</_>
        <_>
          40 24 10 24 2.</_></rects>
      <tilted>0</tilted></_>
    <_>
      <rects>
        <_>
          41 20 6 19 -1.</_>
        <_>
          43 20 2 19 3.</_></rects>
      <tilted>0</tilted></_>
    <_>
      <rects>
        <_>
          46 0 4 14 -1.</_>
        <_>
          46 7 4 7 2.</_></rects>
      <tilted>0</tilted></_>
    <_>
      <rects>
        <_>
          47 28 3 22 -1.</_>
        <_>
          47 39 3 11 2.</_></rects>
      <tilted>0</tilted></_>
    <_>
      <rects>
        <_>
          49 0 1 38 -1.</_>
        <_>
          49 19 1 19 2.</_></rects>
      <tilted>0</tilted></_>
    <_>
      <rects>
        <_>
          49 0 1 50 -1.</_>
        <_>
          49 25 1 25 2.</_></rects>
      <tilted>0</tilted></_></features></cascade>
</opencv_storage>
